%YAML:1.0
---
opencv_ml_svm:
   format: 3
   svmType: C_SVC
   kernel:
      type: LINEAR
   C: 6.2500000000000000e+01
   term_criteria: { iterations:100 }
   var_count: 32
   class_count: 30
   class_labels: !!opencv-matrix
      rows: 30
      cols: 1
      dt: i
      data: [ 0, 1, 2, 3, 4, 5, 6, 7, 8, 9, 10, 11, 12, 13, 14, 15, 16,
          17, 18, 19, 20, 21, 22, 23, 24, 25, 26, 27, 28, 29 ]
   sv_total: 435
   support_vectors:
      - [ 7.13719707e-03, 4.68626142e-01, 5.19939721e-01, 1.84867442e-01,
          -7.01894462e-02, 2.20873933e-02, -1.13448629e-03,
          2.53171563e-01, -1.83917552e-01, -3.98616016e-01,
          -3.98729473e-01, -1.91320375e-01, -1.11347161e-01,
          1.72237381e-02, 5.66954073e-03, -1.23468205e-01,
          1.18057048e+00, 2.03934997e-01, -1.17258334e+00,
          -2.11922079e-01, -3.58316898e-01, 1.09321184e-01,
          1.25745252e-01, 1.23250447e-01, -4.92973089e-01,
          -3.26230228e-01, 4.27661300e-01, 9.56844270e-01,
          -6.76657021e-01, -7.07848430e-01, -7.76392579e-01,
          7.76393056e-01 ]
      - [ -9.95855927e-02, 8.64856184e-01, 1.09358072e+00,
          -4.52151954e-01, -1.32882342e-01, 2.55779875e-03,
          -6.97541654e-01, -3.51307422e-01, -4.62121330e-02,
          -1.99544951e-01, -6.44095242e-01, 1.00874277e-02,
          -1.92100078e-01, 9.82315913e-02, 9.15182650e-01,
          -1.69075191e-01, 1.40669918e+00, -1.17917371e+00,
          -8.79764676e-01, 6.52239025e-01, -4.70780194e-01,
          7.66100466e-01, 6.67126417e-01, -9.62447226e-01,
          -9.10198152e-01, -1.54133868e+00, 6.34946108e-01,
          -4.07420248e-01, -3.39625478e-01, 1.12099715e-01,
          -1.53862417e+00, 1.53862369e+00 ]
      - [ -4.05956775e-01, 1.62188721e+00, 1.68402898e+00,
          -2.70552605e-01, 7.78093934e-02, -2.66061515e-01,
          -3.35330456e-01, -1.10330373e-01, 2.77737416e-02,
          -8.39284182e-01, -8.39284182e-01, 2.28390116e-02,
          -6.79027513e-02, 1.76692635e-01, -2.83697546e-01,
          -1.92630887e-01, 2.62940669e+00, -6.33912981e-01,
          -1.62795568e+00, -3.67538810e-01, -3.68276477e-01,
          6.93233967e-01, 2.25716621e-01, -5.50674498e-01,
          -1.70393336e+00, -1.51306987e+00, 1.02767825e+00,
          9.67815459e-01, -7.02720404e-01, -1.29277349e+00,
          -2.27996016e+00, 2.27995872e+00 ]
      - [ 1.91666767e-01, 4.78915244e-01, 4.12979685e-02,
          -7.25042000e-02, -6.05501868e-02, -5.47392845e-01,
          -1.91591263e-01, 1.35143222e-02, 1.75082177e-01,
          2.02840604e-02, -4.71189141e-01, -3.03027749e-01,
          2.32738212e-01, 4.07744855e-01, 2.60773510e-01,
          -1.75761655e-01, 6.39375865e-01, -7.86020041e-01,
          -5.78850687e-01, 7.25494921e-01, 5.38936973e-01,
          3.59551311e-01, -3.60708982e-01, -5.37779272e-01,
          -1.00267696e+00, -1.10731451e-02, 6.26390874e-02,
          -2.09283084e-01, 8.35849285e-01, -6.89205110e-01,
          -1.18988907e+00, 1.18988991e+00 ]
      - [ -1.12228978e+00, 5.40412307e-01, 1.96591032e+00,
          -3.37175518e-01, 3.16953987e-01, -1.69666958e+00,
          -7.52055794e-02, -1.66202083e-01, 4.25218314e-01,
          -1.03799593e+00, 5.78923941e-01, -1.66202083e-01,
          -1.51433587e-01, 1.58408844e+00, -4.06587243e-01,
          -2.51745582e-01, 1.04685760e+00, -1.62112355e+00,
          -2.00055614e-01, 7.74322331e-01, -5.31551123e-01,
          -6.10164762e-01, 2.06304097e+00, -9.21325505e-01,
          -2.49178123e+00, -1.60181081e+00, -1.96159315e+00,
          1.38732719e+00, 8.19877326e-01, -2.45610952e-01,
          -2.23094726e+00, 2.23095012e+00 ]
      - [ -4.47479516e-01, 5.38840950e-01, 1.28426111e+00,
          -3.63275766e-01, 6.03557289e-01, -3.62390304e+00, 0.,
          1.40691310e-01, 7.86714196e-01, -2.08357024e+00,
          1.74481857e+00, 1.64293155e-01, -1.40005611e-02,
          3.26568317e+00, -9.35582519e-01, -1.06104755e+00,
          1.01234663e+00, -2.87965441e+00, 6.12256467e-01,
          1.25505221e+00, 9.28790808e-01, -1.90294981e+00,
          2.09349680e+00, -1.11933851e+00, -3.38761187e+00,
          -2.46084690e+00, -2.92898345e+00, 1.06167662e+00,
          1.95482635e+00, -8.75185058e-02, -3.96265435e+00,
          3.96265864e+00 ]
      - [ -3.57479244e-01, 4.25916016e-01, 5.72560847e-01,
          4.31883149e-03, -1.56261221e-01, 8.37120228e-03,
          -4.44141775e-01, -1.29784495e-01, -8.81493017e-02,
          -4.17154044e-01, -1.73508257e-01, 2.99003989e-01,
          -3.34929436e-01, 2.63208598e-01, 3.81707221e-01,
          1.46321088e-01, 6.45316482e-01, -7.21816242e-01,
          -3.79807621e-01, 4.56307471e-01, -9.36819255e-01,
          2.80341715e-01, 3.36618006e-01, 3.19859415e-01,
          -3.76295179e-01, -1.19190633e+00, -7.94531628e-02,
          2.95346603e-03, -5.77024221e-01, 6.53524041e-01,
          -1.02643287e+00, 1.02643347e+00 ]
      - [ -3.64659697e-01, 2.28968620e+00, 1.08387637e+00,
          -2.01543763e-01, 2.18166173e-01, -2.53054881e+00,
          -2.12713480e-01, 1.76967755e-01, 4.01175886e-01,
          -1.88106728e+00, 9.67480004e-01, 1.09473243e-01,
          2.65087664e-01, 1.18097377e+00, -6.11388683e-01,
          -8.90965521e-01, 2.80735922e+00, -2.34812903e+00,
          -4.02937829e-01, -5.62932268e-02, 5.19769669e-01,
          -9.40956295e-01, 1.22725391e+00, -8.06067646e-01,
          -2.81869364e+00, -2.03023672e+00, -3.87355626e-01,
          8.46587241e-01, -3.38294730e-02, -4.25400615e-01,
          -3.65684962e+00, 3.65685391e+00 ]
      - [ -4.64836299e-01, -1.61350191e-01, 4.43562412e+00,
          -8.17607760e-01, 4.31047142e-01, -3.62322889e-02,
          -2.16849995e+00, 4.11837757e-01, 5.58959126e-01,
          6.39421105e-01, -1.52907884e+00, 2.00834692e-01,
          -1.55821487e-01, -3.39643091e-01, -8.48757863e-01,
          -1.55896038e-01, 2.99183059e+00, -1.36184728e+00,
          -1.29863694e-01, -1.50011897e+00, 3.69348794e-01,
          1.02195442e-01, -1.10712752e-01, -3.60831320e-01,
          -2.18604350e+00, -2.50250793e+00, -2.31371135e-01,
          1.86135447e+00, 7.02915609e-01, -2.33289742e+00,
          -3.09438992e+00, 3.09439087e+00 ]
      - [ 1.70319557e-01, 5.16382873e-01, 3.29442054e-01,
          -2.28552103e-01, -6.84222877e-02, -4.30932462e-01,
          -4.29615170e-01, 2.66657025e-01, -1.59509912e-01,
          -2.69485354e-01, -2.69485354e-01, 2.66657025e-01,
          2.06816599e-01, 3.13014477e-01, 8.28351229e-02,
          -2.96122015e-01, 7.87592351e-01, -6.62312984e-01,
          -4.31823611e-01, 3.06544185e-01, 1.49203971e-01,
          1.28979415e-01, -2.86823332e-01, 8.63994285e-03,
          -8.26220214e-01, -7.20836043e-01, 1.87347695e-01,
          -6.20681606e-02, 9.08358097e-02, -2.16115221e-01,
          -1.39951837e+00, 1.39951885e+00 ]
      - [ -1.82357979e+00, 1.50776768e+00, 1.44791472e+00,
          -1.94788206e+00, 3.95123154e-01, -1.19800794e+00,
          -1.14210916e+00, 7.62131989e-01, 9.63549495e-01,
          -1.21961705e-01, -4.37026292e-01, 7.67936051e-01,
          1.64741904e-01, 9.20541406e-01, 8.22258413e-01,
          -1.08139789e+00, -8.15779090e-01, -1.18286204e+00,
          1.17249763e+00, 8.26144040e-01, -3.00165087e-01,
          1.10833883e+00, 6.91037178e-01, -1.49921143e+00,
          -4.54001188e+00, -3.04721069e+00, -1.11869693e+00,
          -8.79943788e-01, 1.92687166e+00, 7.17699677e-02,
          -2.89910483e+00, 2.89910960e+00 ]
      - [ -5.79537861e-02, -2.19604924e-01, -1.03840820e-01,
          2.43096203e-01, -7.98879266e-01, -6.32716417e-01,
          -5.79599261e-01, -8.72142136e-01, -6.54318750e-01,
          4.47766662e-01, 3.14012975e-01, -8.99896681e-01,
          1.40801877e-01, 2.09004068e+00, 1.49152803e+00, 9.17059407e-02,
          -1.38303727e-01, -2.88333702e+00, -7.92435825e-01,
          3.81407642e+00, -1.37034976e+00, 1.68548560e+00,
          1.12210071e+00, -1.43723607e+00, -2.84951568e-01,
          2.52065599e-01, -1.70915461e+00, -1.31248581e+00,
          2.02429032e+00, 9.97350276e-01, -4.50535983e-01,
          4.50537682e-01 ]
      - [ -4.53974867e+00, 2.96755099e+00, 1.57516527e+00,
          -6.17840242e+00, 1.57478535e+00, 0., 0., 1.73574793e+00,
          8.14792752e-01, 0., 0., 1.06428921e+00, 4.14713264e-01,
          6.78035796e-01, 2.63006598e-01, -3.69935781e-01,
          -6.17543221e+00, 3.31053400e+00, 1.87908280e+00,
          9.85822678e-01, -1.73545337e+00, 3.64558625e+00,
          1.83817196e+00, -3.74830055e+00, -4.90968418e+00,
          -5.76369047e+00, 2.58786720e-03, -2.86748934e+00,
          1.90754151e+00, 9.57359791e-01, 0., -8.17074397e-06 ]
      - [ -1.10405743e+00, 3.12224030e-01, 3.10835570e-01,
          -9.44060087e-01, 1.05785340e-01, -4.68574971e-01,
          -4.54600692e-01, 2.74375305e-02, 2.31513321e-01,
          -6.98714703e-02, 1.04974963e-01, 2.76124589e-02,
          -1.99382499e-01, 1.26382864e+00, 1.23619640e+00,
          -3.79861057e-01, -1.42505789e+00, -7.89952874e-01,
          2.94229239e-01, 1.92078149e+00, -9.66141284e-01,
          1.03760612e+00, 1.19740617e+00, -1.26887119e+00,
          -1.84751856e+00, -1.66791463e+00, -1.15462267e+00,
          -1.06038737e+00, 1.22608793e+00, 9.88922715e-01,
          -8.88072133e-01, 8.88073623e-01 ]
      - [ -6.26704156e-01, -1.01974167e-01, -7.34898597e-02,
          -5.85988045e-01, -1.47257105e-01, -4.20514703e-01,
          -2.42524102e-01, 5.54534376e-01, -9.54696983e-02,
          -3.69178861e-01, 2.83213239e-02, 6.45943105e-01,
          -1.52952909e-01, 5.51539302e-01, 7.19615936e-01,
          3.16099793e-01, -1.38815618e+00, -2.55761683e-01,
          2.09615886e-01, 1.43430209e+00, -1.02238405e+00,
          -3.40128720e-01, 4.31923151e-01, 9.30589259e-01,
          -7.02797651e-01, -1.35064375e+00, -1.29644990e+00,
          -3.47467571e-01, -6.60621300e-02, 1.70998013e+00,
          -1.00389636e+00, 1.00389779e+00 ]
      - [ 5.97916961e-01, 2.98226982e-01, 5.60340405e-01, 5.09706497e-01,
          -4.32084128e-02, -2.65174389e-01, 0., -3.31129521e-01,
          -1.27143264e-01, 2.48265669e-01, -1.40408504e+00,
          -2.64955133e-01, 2.96794355e-01, 3.06868005e+00,
          -1.45756340e+00, -1.68667221e+00, 1.96619105e+00,
          -6.39512241e-01, -1.54791772e+00, 2.21238405e-01,
          7.24360645e-01, 3.34999776e+00, -2.30130816e+00,
          -1.77305043e+00, -2.75801492e+00, 1.05476654e+00,
          5.87761283e-01, 7.38917887e-01, 3.48659706e+00,
          -4.81327629e+00, -1.42099345e+00, 1.42099261e+00 ]
      - [ -6.46733284e-01, 6.36442378e-02, 5.81041127e-02,
          -5.77287614e-01, 9.04398799e-01, -7.70304561e-01, 0.,
          8.78734887e-01, 9.40339088e-01, -6.96732342e-01,
          7.82425627e-02, 8.82802188e-01, -5.50160170e-01,
          1.49216458e-01, -7.82499614e-04, -7.13481784e-01,
          -1.10227263e+00, 1.01282918e+00, 1.20465147e+00,
          -1.11520815e+00, 6.47844493e-01, -1.25417626e+00,
          1.35564178e-01, 4.70767647e-01, -2.05227709e+00,
          -1.82418025e+00, -4.48994756e-01, 3.59551489e-01,
          -1.57337025e-01, 2.46780485e-01, -1.38879430e+00,
          1.38879538e+00 ]
      - [ -5.28779328e-01, 7.83747286e-02, 1.95544183e-01,
          -4.00117755e-01, 5.14895976e-01, -7.92776346e-01,
          -8.26931417e-01, 4.10182267e-01, -1.00680746e-01,
          7.62689933e-02, 8.80822912e-02, -1.45043150e-01,
          1.07211992e-01, 7.12510109e-01, 6.89525962e-01,
          -7.82676265e-02, -6.54978037e-01, -6.94629550e-01,
          -8.13725442e-02, 1.43098044e+00, -7.35214772e-03,
          7.43773803e-02, 1.46220833e-01, -2.13246182e-01,
          -1.31174088e+00, -1.04356825e+00, -7.28284776e-01,
          -6.21322811e-01, 7.95310378e-01, 5.54297447e-01,
          -1.45535660e+00, 1.45535743e+00 ]
      - [ -5.28646529e-01, -2.87104964e-01, -2.77980447e-01,
          -4.74170655e-01, 3.46387416e-01, 0., 0., -1.63456663e-01,
          3.37430626e-01, 0., 0., -1.55127659e-01, 2.93442041e-01,
          5.21632195e-01, 5.25734365e-01, -1.38139755e-01,
          -1.56790233e+00, 1.82930797e-01, 1.82302997e-01,
          1.20266891e+00, 4.48613614e-01, 2.34527260e-01, 2.47753963e-01,
          -9.30894792e-01, -6.66786313e-01, -1.80728659e-01,
          -4.69364047e-01, -9.15607870e-01, 1.15250492e+00,
          2.32466996e-01, 0., 8.17070486e-07 ]
      - [ -9.02353466e-01, 3.11702996e-01, 3.61797959e-01,
          -8.11501920e-01, 4.88639385e-01, -1.00392520e+00, 0.,
          1.32285798e+00, 7.37312376e-01, -8.61028910e-01,
          2.66726315e-01, 1.33071005e+00, -6.57994270e-01,
          2.70135283e-01, -3.56721273e-03, -8.49511147e-01,
          -1.04035413e+00, 8.07572246e-01, 1.47371984e+00,
          -1.24093783e+00, -3.34395826e-01, -1.28311598e+00,
          6.24957085e-01, 9.92555141e-01, -2.48906374e+00,
          -2.33052540e+00, -1.10593629e+00, 8.73153985e-01,
          -5.11575282e-01, 7.44357944e-01, -1.59822786e+00,
          1.59823000e+00 ]
      - [ -6.82617664e-01, 2.71359444e-01, 4.81421560e-01,
          -5.11851072e-01, 4.56759214e-01, -9.10906315e-01,
          -1.20537363e-01, 9.73307073e-01, 1.07087886e+00,
          1.46425575e-01, -8.00653577e-01, 4.64238882e-01,
          -3.37698728e-01, 1.26086757e-01, 2.83334013e-02,
          -6.54545963e-01, -4.41688031e-01, 3.98622602e-01,
          8.80889952e-01, -8.37824821e-01, 5.07321715e-01,
          -3.67034435e-01, -4.11436021e-01, 2.71148890e-01,
          -3.04872370e+00, -8.23661566e-01, -8.65405262e-01,
          8.22340369e-01, 1.00569248e+00, -9.62627411e-01,
          -1.68567157e+00, 1.68567359e+00 ]
      - [ -6.00570500e-01, 1.97202578e-01, 2.51874536e-01,
          -9.16316152e-01, -1.14620514e-01, -3.89362127e-01,
          -6.23541892e-01, 5.80378473e-01, -8.81443247e-02,
          -2.13720307e-01, -5.15466044e-03, 8.56526434e-01,
          -9.71975327e-02, -3.26840997e-01, 1.07033598e+00,
          4.19151217e-01, -1.06780934e+00, -5.47146201e-01,
          5.49507141e-01, 1.06544864e+00, -9.00532842e-01,
          -7.32720852e-01, 6.93513691e-01, 9.39740062e-01,
          -5.75936139e-01, -1.85077584e+00, -9.07350183e-01,
          -7.07604825e-01, -7.25903153e-01, 2.34085894e+00,
          -1.23177910e+00, 1.23178124e+00 ]
      - [ -7.08287954e-01, 1.04432356e+00, 1.81595016e+00,
          -4.51394677e-01, 9.74564180e-02, -1.40505242e+00,
          -1.90715089e-01, -5.33788688e-02, 1.63634717e-01,
          -2.95744210e-01, -1.86764181e-01, 1.11118250e-03,
          -2.82080472e-01, 1.32545745e+00, -3.96822363e-01,
          -4.77693170e-01, 1.70059133e+00, -1.55169022e+00,
          -3.17762494e-01, 1.68861061e-01, -7.29277372e-01,
          6.68984234e-01, 1.04164827e+00, -9.81355429e-01,
          -2.77779794e+00, -1.21993434e+00, -9.71560419e-01,
          1.12046158e+00, 9.11267281e-01, -1.06016874e+00,
          -2.07827616e+00, 2.07827926e+00 ]
      - [ -1.83539629e-01, 4.73251492e-01, 4.89570528e-01,
          1.74069509e-01, -2.95546144e-01, -2.76775032e-01,
          -2.79875368e-01, 3.77675332e-03, -1.99154019e-01,
          -1.71081930e-01, -2.08398640e-01, -1.64148450e-01,
          -1.50901601e-01, 3.37259680e-01, 3.26380342e-01,
          1.25112459e-01, 9.53351974e-01, -8.48419845e-01,
          -7.42783070e-01, 6.37850881e-01, -8.29141319e-01,
          3.62654179e-01, 3.27676862e-01, 1.38810262e-01,
          -5.43600798e-01, -4.27789390e-01, -2.82609314e-01,
          3.87541473e-01, -1.83877870e-01, 7.89456964e-02,
          -9.36130941e-01, 9.36131239e-01 ]
      - [ -3.10224891e+00, -7.42287815e-01, 3.12517941e-01,
          5.97871661e-01, 4.88530350e+00, 0., 0., -3.24151099e-01,
          3.20435023e+00, -1.37908399e-01, -3.67755741e-01,
          -3.92670855e-02, -3.31096673e+00, -3.88535798e-01,
          -7.46784270e-01, 1.59862712e-01, -2.93414712e+00,
          4.56115294e+00, 2.65941954e+00, -4.28642321e+00,
          1.67643797e+00, -1.26873195e+00, -8.02021980e-01,
          3.94315988e-01, -3.31014156e+00, -2.85100341e+00,
          1.04076707e+00, 5.86237729e-01, -6.33061111e-01,
          -9.93943453e-01, -5.05664170e-01, 5.05666316e-01 ]
      - [ -4.10226315e-01, 3.40274692e-01, 6.40437901e-01,
          2.68174231e-01, 3.88365537e-01, -2.88917601e-01,
          -5.97461224e-01, -2.88931936e-01, 4.02920336e-01,
          -2.40182117e-01, -4.77269888e-01, -2.32030883e-01,
          -3.22009623e-01, 1.97148144e-01, 4.26958591e-01,
          1.92750216e-01, 8.38660538e-01, -7.86945343e-01,
          -5.46562612e-01, 4.94847298e-01, 5.90498112e-02,
          8.32299702e-03, -7.33476598e-03, -6.00383729e-02,
          -9.83663678e-01, -8.91478777e-01, 2.94963010e-02,
          2.22189073e-02, 3.78766693e-02, -8.95919651e-02,
          -1.60383081e+00, 1.60383141e+00 ]
      - [ -1.62090227e-01, 3.81029099e-01, 4.00212079e-01,
          -8.75106230e-02, 1.10109977e-01, -3.32516462e-01,
          -3.67517292e-01, 4.79830801e-02, 4.89909239e-02,
          -2.32091919e-01, -2.60362476e-01, 7.62536377e-02,
          6.66192558e-04, 2.79596686e-01, 2.64923334e-01,
          -1.67676032e-01, 5.31640351e-01, -5.41940689e-01,
          -3.67209911e-01, 3.77510160e-01, -2.32321071e-03,
          9.60173681e-02, 3.72556262e-02, -1.30949870e-01,
          -9.22645211e-01, -6.86453640e-01, -3.46755562e-03,
          -6.83270535e-03, 9.71618891e-02, -8.68614912e-02,
          -1.19248819e+00, 1.19248855e+00 ]
      - [ -1.76780999e-01, 3.38859946e-01, 3.71774882e-01,
          1.32186607e-01, 5.06239943e-02, -3.83663565e-01,
          -2.05224052e-01, 9.44744330e-03, 3.12331356e-02,
          -3.32962096e-01, -1.73913434e-01, -8.29034001e-02,
          -1.51996017e-01, 2.30458543e-01, 2.47849911e-01,
          9.50091258e-02, 6.66040480e-01, -5.28816164e-01,
          -5.58545768e-01, 4.21321571e-01, -2.46919915e-01,
          -1.47307172e-01, 2.40487263e-01, 1.53739795e-01,
          -6.39348865e-01, -5.57995617e-01, -1.70960590e-01,
          3.08184862e-01, -2.23266497e-01, 8.60422254e-02,
          -1.09576321e+00, 1.09576344e+00 ]
      - [ -8.38838294e-02, 6.90010071e-01, 5.61863005e-01,
          -3.46043020e-01, -1.94616858e-02, -5.46516925e-02,
          -5.66751122e-01, -7.81610981e-02, -3.44620161e-02,
          -4.32170391e-01, 9.64933783e-02, -5.91174327e-02,
          -3.83161724e-01, 3.89745921e-01, 4.75869000e-01,
          -1.56117320e-01, 8.21946204e-01, -7.19025552e-01,
          -4.29256409e-01, 3.26335847e-01, -5.20969331e-01,
          5.92933834e-01, 5.67474186e-01, -6.39438808e-01,
          -1.98159486e-01, -1.72812617e+00, 5.32012880e-01,
          -4.29092199e-01, -4.60048288e-01, 3.57127637e-01,
          -9.57079768e-01, 9.57080305e-01 ]
      - [ -8.31199661e-02, -1.62703574e-01, -2.21882742e-02,
          -6.65648222e-01, 2.42068097e-02, 6.10412247e-02,
          -4.28947210e-01, -5.91650784e-01, 2.57246315e-01,
          5.71606219e-01, 3.81159484e-01, 3.88529539e-01, 5.74579462e-02,
          -2.36544549e-01, 3.95821273e-01, 5.37338071e-02,
          -9.33660030e-01, -9.35349941e-01, 1.59854186e+00,
          2.70468473e-01, 2.55790859e-01, 2.33399346e-01, 3.25845361e-01,
          -8.15035462e-01, 4.12814617e-01, -4.65531319e-01,
          -1.60575405e-01, -1.70843458e+00, 6.49766028e-01,
          1.21924412e+00, 5.84859788e-01, -5.84859788e-01 ]
      - [ -3.36432666e-01, -7.86269531e-02, -2.41081223e-01,
          -8.51262927e-01, 8.46625268e-02, -1.92857385e-01,
          -7.05270469e-02, -1.05628824e+00, 5.75906515e-01,
          7.79013753e-01, 9.13662910e-01, 7.06375182e-01, 3.34181428e-01,
          -2.71252304e-01, -5.55886149e-01, 2.60412663e-01,
          -1.50740385e+00, -1.23501039e+00, 2.97495890e+00,
          -2.32544705e-01, 6.58317327e-01, 2.36276969e-01,
          4.61682491e-02, -9.40763414e-01, 6.44785643e-01,
          1.91405281e-01, -5.23254275e-01, -2.21915960e+00,
          1.41784918e+00, 1.32456446e+00, 1.42929232e+00,
          -1.42929244e+00 ]
      - [ 2.23420843e-01, -1.03803899e-03, -5.83354354e-01,
          -2.60426044e-01, 2.95012861e-01, -6.05008304e-01,
          -3.92728120e-01, -2.10750535e-01, 2.44224623e-01,
          6.58947825e-01, 8.99498463e-02, 2.59054173e-02, 2.51767844e-01,
          2.37382844e-01, 1.91710722e-02, 7.52224075e-03,
          -6.21397614e-01, -9.13474143e-01, 1.01902771e+00,
          5.15843987e-01, 1.01442623e+00, 2.90284365e-01,
          -8.66961479e-01, -4.37748939e-01, -2.84115434e-01,
          2.57561594e-01, -8.76127034e-02, -1.44725895e+00,
          1.39232326e+00, 1.42548636e-01, -2.48838738e-01,
          2.48838633e-01 ]
      - [ -2.23812371e-01, -6.40129209e-01, -2.84017295e-01,
          -3.27132374e-01, 1.15101852e-01, -2.94022441e-01,
          7.55464062e-02, -2.58026719e-01, 2.56668180e-01,
          3.54099154e-01, 5.45419633e-01, 2.71517694e-01, 1.37979090e-01,
          2.71494001e-01, -1.52804092e-01, 1.52118549e-01,
          -1.47509122e+00, -3.61400932e-01, 1.42770469e+00,
          4.08787549e-01, 2.85936654e-01, -3.08558524e-01,
          1.84144631e-01, -1.61522835e-01, 1.79703385e-01,
          2.40492269e-01, -1.04286206e+00, -7.93630064e-01,
          1.02024031e+00, 8.16251755e-01, 6.81042790e-01,
          -6.81042433e-01 ]
      - [ 4.24616318e-03, -4.46811438e-01, -4.73567069e-01,
          -2.63844520e-01, 8.29863325e-02, -2.98357755e-01,
          6.01238348e-02, -2.85208941e-01, 2.29989663e-01,
          3.17174435e-01, 6.62125587e-01, 2.43443832e-01, 1.38024330e-01,
          1.31488100e-01, -1.39121652e-01, 3.73090319e-02,
          -1.17997682e+00, -4.40456569e-01, 1.45273376e+00,
          1.67699710e-01, 4.55246359e-01, -2.96506703e-01,
          1.09560676e-01, -2.68300474e-01, 4.05323029e-01,
          2.51478165e-01, -6.57936573e-01, -9.62496758e-01,
          8.16676497e-01, 8.03756714e-01, 7.41066158e-01,
          -7.41066098e-01 ]
      - [ -4.60089684e-01, -1.07308008e-01, 0., -2.16565490e-01,
          -6.33661747e-02, 5.29163741e-02, -4.71400082e-01,
          -4.09772575e-01, 1.22903682e-01, 1.64421886e-01,
          4.26580101e-01, 7.83998311e-01, -3.45545888e-01,
          7.89618492e-02, 2.61332780e-01, 1.82932943e-01,
          -7.83963144e-01, -8.91622424e-01, 1.49790418e+00,
          1.77681670e-01, -7.46098101e-01, 1.88992143e-01,
          2.16512799e-01, 3.40593159e-01, 2.02339724e-01,
          -8.69089365e-01, -5.77847421e-01, -1.09773815e+00,
          2.07416415e-02, 1.65484416e+00, 1.72518283e-01,
          -1.72518626e-01 ]
      - [ 1.23080567e-01, -2.87666678e-01, -7.28021443e-01,
          -2.78404891e-01, 5.83514981e-02, -6.77720129e-01,
          4.08640020e-02, -2.77846694e-01, 2.76646376e-01,
          1.92864642e-01, 7.96664178e-01, 3.84915501e-01, 2.54765958e-01,
          1.02787793e-01, -1.77234486e-01, 1.95953846e-01,
          -1.17101252e+00, -8.56351316e-01, 1.65109086e+00,
          3.76273066e-01, 7.12844253e-01, -6.69734418e-01,
          -6.77277297e-02, 2.46177055e-02, 4.37978476e-01,
          2.10089743e-01, -7.83954740e-01, -1.24340904e+00,
          8.27064693e-01, 1.20029902e+00, 3.52672756e-01,
          -3.52673113e-01 ]
      - [ 7.26997331e-02, -5.82942903e-01, -1.82793051e-01,
          -3.47755671e-01, 9.82998833e-02, -5.41813578e-03,
          -3.89650613e-01, -3.74591857e-01, 3.11455041e-01,
          8.70363474e-01, 3.57425988e-01, 3.12418312e-01, 1.51064396e-01,
          -2.08321154e-01, -2.09889784e-01, 1.27636358e-01,
          -1.04079199e+00, -6.71360672e-01, 1.85166311e+00,
          -1.39510185e-01, 6.33518815e-01, 7.36813173e-02,
          -4.24907416e-01, -2.82292813e-01, 5.52344024e-01,
          2.84021616e-01, -4.17361379e-01, -1.29479122e+00,
          1.12456167e+00, 5.87590873e-01, 8.32720816e-01,
          -8.32720935e-01 ]
      - [ 2.75063157e-01, -4.42880578e-03, -3.51369947e-01,
          -6.82071090e-01, 8.34680274e-02, -5.45231462e-01,
          -6.33007824e-01, 2.58368198e-02, 8.35839361e-02,
          4.47795242e-01, 3.18681210e-01, 7.29550660e-01, 2.59356141e-01,
          2.84975648e-01, 3.04521713e-02, -3.22653741e-01,
          -7.62806773e-01, -1.06893456e+00, 1.57961094e+00,
          2.52130270e-01, 7.01471329e-01, 1.83110595e-01,
          -6.35244310e-01, -2.49337316e-01, -2.74140716e-01,
          -6.07927501e-01, -1.91129118e-01, -1.64061201e+00,
          1.07571089e+00, 7.56030262e-01, -4.11762834e-01,
          4.11763012e-01 ]
      - [ -1.70281067e-01, -3.36168140e-01, -3.80849451e-01,
          -3.80849451e-01, 9.19571519e-02, -8.79875124e-02,
          -5.58704548e-02, -1.25443980e-01, 2.57215738e-01,
          4.22237962e-01, 3.97227585e-01, 2.89332807e-01, 1.02635972e-01,
          -5.14067523e-03, -5.14067523e-03, -1.28758186e-02,
          -1.26814806e+00, -1.77344814e-01, 1.36601424e+00,
          7.94787928e-02, 2.81527728e-01, -7.05838483e-03,
          -4.46330309e-02, -2.29836419e-01, 1.26083240e-01,
          8.81540477e-02, -5.02479553e-01, -9.43013310e-01,
          7.76948988e-01, 6.68543875e-01, 6.75607681e-01,
          -6.75607681e-01 ]
      - [ 1.39833183e-03, -4.05180544e-01, -4.11820889e-01,
          -1.22021005e-01, -5.73318042e-02, -4.86119129e-02,
          -2.40729060e-02, -2.56390363e-01, 4.86047640e-02,
          3.95679027e-01, 3.84628594e-01, 5.78911491e-02, 9.05261487e-02,
          1.54182732e-01, 1.08424857e-01, 8.40938091e-02,
          -9.37624156e-01, -3.86406988e-01, 8.86803627e-01,
          4.37227517e-01, 8.31973925e-02, 9.60693136e-02, 5.71596622e-02,
          -2.36426368e-01, 4.21508819e-01, 3.40111285e-01,
          -5.09725928e-01, -8.14305127e-01, 6.88992679e-01,
          6.35038376e-01, 7.07622886e-01, -7.07622945e-01 ]
      - [ -1.68264478e-01, -2.52490640e-01, -3.03838730e-01,
          -3.12519819e-01, 1.00512967e-01, 0., 0., -1.60969734e-01,
          1.93050966e-01, 3.79571676e-01, 3.79571676e-01, 1.54970691e-01,
          6.71425238e-02, -5.07909581e-02, -5.07909581e-02,
          2.48448141e-02, -1.03711355e+00, -6.04567751e-02,
          1.10716498e+00, -9.59448982e-03, 1.92441985e-01,
          7.62901008e-02, 2.49419939e-02, -2.93674082e-01,
          2.36152023e-01, 1.34194359e-01, -3.20242077e-01,
          -7.77328312e-01, 5.88974237e-01, 5.08596122e-01,
          7.59143353e-01, -7.59143710e-01 ]
      - [ -1.99827433e-01, -3.05234283e-01, -3.35022449e-01,
          -3.21621567e-01, 5.85793108e-02, -7.03358129e-02,
          -4.61376496e-02, -1.43658012e-01, 1.63603425e-01,
          3.05078328e-01, 3.42677414e-01, 1.67700261e-01, 2.95188259e-02,
          1.74688920e-01, 1.78039148e-01, 1.95154652e-03,
          -1.16170573e+00, -2.01552168e-01, 9.79059517e-01,
          3.84198427e-01, 5.18740825e-02, 1.04197182e-01, 1.39556453e-01,
          -2.95627803e-01, 7.44657293e-02, -3.31620313e-02,
          -5.16818166e-01, -8.46439660e-01, 6.72889471e-01,
          6.90368354e-01, 5.31282306e-01, -5.31282425e-01 ]
      - [ -1.87046289e-01, -3.19889784e-01, -4.07664150e-01,
          -2.94052839e-01, -3.61365965e-04, -1.61519870e-01,
          -2.61179227e-02, 7.33047500e-02, 9.73481014e-02,
          2.04890579e-01, 3.00194412e-01, 3.66410464e-01, 1.70022342e-02,
          8.34550932e-02, 1.30236223e-01, 1.23810410e-01,
          -1.20865309e+00, -1.14694431e-01, 9.68843639e-01,
          3.54503959e-01, -7.30573535e-02, -1.93063945e-01,
          -3.35146883e-03, 2.69472748e-01, 7.54387006e-02,
          -9.82779637e-02, -6.68817341e-01, -6.54530227e-01,
          4.02696013e-01, 9.20651555e-01, 3.17447215e-01,
          -3.17447126e-01 ]
      - [ 3.73639837e-02, -4.32995468e-01, -4.62404847e-01,
          -1.71261057e-01, 5.01107126e-02, -3.01560462e-02,
          1.08942967e-02, -3.34724724e-01, 1.87881097e-01,
          5.23589432e-01, 3.76252651e-01, 1.53665408e-01, 1.46195903e-01,
          1.79396689e-01, -1.74542859e-01, -5.92651777e-02,
          -1.02929735e+00, -3.03875774e-01, 1.24138844e+00,
          9.17845443e-02, 4.21551675e-01, 2.39834607e-01,
          -2.49800757e-01, -4.11585599e-01, 3.24195385e-01,
          5.09418607e-01, -3.75676811e-01, -9.57496285e-01,
          1.03706312e+00, 2.96109855e-01, 8.80580366e-01,
          -8.80580544e-01 ]
      - [ -1.63986832e-01, -2.95152158e-01, -3.23388308e-01,
          -3.07218879e-01, 3.05891544e-01, -2.26371825e-01, 0.,
          1.41180707e-02, 4.18836117e-01, 2.07949951e-01, 4.23542172e-01,
          3.81187916e-01, -8.54324400e-02, -1.21873975e-01,
          -1.00314729e-01, -1.27786636e-01, -1.08974624e+00,
          9.36378017e-02, 1.43151605e+00, -4.35407758e-01,
          4.75308329e-01, -4.35448080e-01, -1.60872863e-04,
          -3.96995619e-02, -9.46031585e-02, -1.84701398e-01,
          -3.79619271e-01, -6.16489112e-01, 4.19479668e-01,
          5.76628625e-01, 4.05120283e-01, -4.05120343e-01 ]
      - [ -2.01702446e-01, -3.37590039e-01, -3.27693492e-01,
          -3.00001085e-01, 2.55874038e-01, -2.85712719e-01,
          -2.79113591e-01, 2.76699271e-02, 1.02926344e-01,
          3.77660871e-01, 3.84259999e-01, 1.27987072e-01, 1.10178508e-01,
          1.71567947e-01, 1.71567947e-01, 2.12072721e-03,
          -1.16698706e+00, -2.81282365e-01, 9.92834389e-01,
          4.55435097e-01, 2.67276406e-01, -7.40739331e-02,
          -5.09791560e-02, -1.42223343e-01, -1.01034380e-01,
          -9.12753046e-02, -5.69131136e-01, -8.79138291e-01,
          7.62333691e-01, 6.85935795e-01, 1.97094560e-01,
          -1.97094664e-01 ]
      - [ -1.72037750e-01, -2.25078836e-01, -2.32394844e-01,
          -2.09155366e-01, 1.18885204e-01, 1.64610296e-02,
          1.82900317e-02, -1.13830872e-01, 1.62781283e-01,
          1.81071311e-01, 1.82900324e-01, 2.51733828e-02, 9.69371721e-02,
          9.14501622e-02, 9.14501622e-02, -3.29023898e-02,
          -8.38666737e-01, 3.98053937e-02, 5.51926374e-01,
          2.46935084e-01, 2.06565887e-01, 6.39036670e-02, 6.02456555e-02,
          -3.30715239e-01, -5.57878520e-03, 8.71431530e-02,
          -2.61770338e-01, -5.37091076e-01, 5.32239914e-01,
          2.66621470e-01, 3.98722708e-01, -3.98722649e-01 ]
      - [ -1.34612292e-01, -3.48099828e-01, -3.86982948e-01,
          -3.09586346e-01, 1.58085421e-01, -3.86982948e-01, 0.,
          1.94415599e-02, 3.21357578e-01, 1.96263939e-01, 5.83246887e-01,
          5.24922132e-01, -8.34728032e-02, -1.37465596e-01,
          1.84828707e-03, -1.79629084e-02, -1.17928147e+00,
          -2.09455952e-01, 1.62579036e+00, -2.37053066e-01,
          2.61357784e-01, -6.76284432e-01, 1.98112220e-01,
          2.16814429e-01, 4.36886624e-02, -1.96795255e-01,
          -7.11609602e-01, -6.77127779e-01, 2.96683103e-01,
          1.09205425e+00, 3.92527878e-01, -3.92527610e-01 ]
      - [ -1.72881216e-01, -4.03186589e-01, -3.92459005e-01,
          -3.61062288e-01, 2.27947265e-01, -4.14633781e-01,
          6.53172086e-04, 5.27190305e-02, 5.71739137e-01, 6.27336562e-01,
          1.94912076e-01, 4.06186789e-01, -1.08781464e-01,
          -5.95275685e-02, -9.87734646e-02, -7.01887161e-02,
          -1.32958901e+00, -1.33314312e-01, 1.80017471e+00,
          -3.37271333e-01, 5.18023551e-01, -2.50011384e-01,
          -2.95667320e-01, 2.76547838e-02, -4.62791562e-01,
          1.58145979e-01, -7.62754142e-01, -7.00149119e-01,
          1.03076661e+00, 4.32136565e-01, 4.08268064e-01,
          -4.08268213e-01 ]
      - [ -1.27799958e-01, -3.07614177e-01, -3.23492199e-01,
          -3.50449890e-01, 1.00074140e-02, -7.21051469e-02,
          -1.05876401e-01, -9.12530906e-03, 9.44925845e-02,
          2.58193016e-01, 3.10686350e-01, 3.57255846e-01, 4.32463586e-02,
          -1.41191334e-01, 1.93083927e-01, 1.70688912e-01,
          -1.10935616e+00, -1.77099481e-01, 1.02062786e+00,
          2.65827835e-01, 1.99463442e-02, -2.62717605e-01,
          7.44016394e-02, 1.68369576e-01, 2.81470150e-01,
          -1.54886901e-01, -4.97511774e-01, -7.88943768e-01,
          2.54740566e-01, 1.03171504e+00, 3.90897840e-01,
          -3.90897661e-01 ]
      - [ -1.80209532e-01, -4.24198866e-01, -2.59884268e-01,
          -4.09514606e-01, 1.03955917e-01, -3.67738992e-01,
          2.62916610e-02, -3.11279088e-01, 2.83610106e-01,
          5.46160161e-01, 5.85803151e-01, 3.23253095e-01, 5.35052754e-02,
          2.49587536e-01, -2.30804622e-01, 1.14630386e-02,
          -1.27380729e+00, -5.48770607e-01, 1.73882663e+00,
          8.37510675e-02, 2.60861605e-01, 3.80991632e-03, 1.21405862e-01,
          -3.86077553e-01, 4.93176505e-02, 2.16442510e-01,
          -8.68191421e-01, -9.54386353e-01, 1.13286293e+00,
          6.89714611e-01, 7.90516019e-01, -7.90515840e-01 ]
      - [ -4.62116122e-01, 8.23068470e-02, 0., 0., -4.92880374e-01,
          -6.06413007e-01, -5.70046246e-01, -3.48427922e-01,
          -1.81857776e-02, 6.64556444e-01, 5.83736777e-01,
          2.34412119e-01, -1.78085223e-01, 4.11534220e-01,
          4.11534220e-01, 2.88073957e-01, -3.79809290e-01,
          -2.01776743e+00, 1.46451974e+00, 9.33057129e-01,
          -1.15126729e+00, 5.51984608e-01, 4.25224870e-01,
          1.74058020e-01, -1.96718425e-01, -8.35748911e-02,
          -1.47910273e+00, -9.18474138e-01, 8.79819810e-01,
          1.51775718e+00, 7.18341097e-02, -7.18346834e-02 ]
      - [ -2.09676698e-01, -3.47413808e-01, -3.41545254e-01,
          -1.62442252e-01, 2.97406733e-01, 0., 0., -2.15358764e-01,
          3.11419159e-01, 3.99298370e-01, 3.78472447e-01, 1.58190042e-01,
          -9.03037339e-02, -1.00337468e-01, -1.00337468e-01,
          2.26287805e-02, -1.06107807e+00, 8.20479617e-02,
          1.24737990e+00, -2.68349916e-01, 3.08845371e-01,
          -4.84529249e-02, -6.34102821e-02, -1.96982294e-01,
          1.91424564e-01, 1.46552414e-01, -2.59683758e-01,
          -7.19346285e-01, 5.20076275e-01, 4.58953738e-01,
          7.77770817e-01, -7.77771115e-01 ]
      - [ -5.38665473e-01, -4.32143807e-01, 0., 0., 7.32678354e-01,
          -5.01708329e-01, -9.24484968e-01, -5.17175674e-01,
          1.00462234e+00, 7.33072281e-01, 3.10295761e-01,
          -1.50715396e-01, -3.27825993e-01, -9.72420797e-02,
          2.84963727e-01, 4.24329340e-01, -9.70809281e-01,
          -1.21069074e+00, 1.89727509e+00, 2.84224987e-01,
          8.70809078e-01, -2.98021734e-01, -3.29225421e-01,
          -2.43561774e-01, -3.05748791e-01, -5.19238770e-01,
          -7.39839137e-01, -1.44166076e+00, 1.31262660e+00,
          8.68873358e-01, -3.82825226e-01, 3.82825553e-01 ]
      - [ -2.35693768e-01, 4.34427932e-02, -2.99648028e-02,
          -4.54286635e-01, 3.49451721e-01, -6.28893256e-01,
          -6.60790503e-01, -5.13747521e-02, 4.16082770e-01,
          2.31388167e-01, 2.52624124e-01, 4.05578792e-01, 4.37753927e-03,
          2.63747543e-01, 2.64198601e-01, -1.69888303e-01,
          -6.76502347e-01, -9.91606772e-01, 1.30567396e+00,
          3.62435341e-01, 5.34218371e-01, -9.03147012e-02,
          -1.73932567e-01, -2.69970924e-01, -7.81851232e-01,
          -8.79311383e-01, -4.71692532e-01, -1.19641662e+00,
          9.15596068e-01, 7.52513289e-01, -8.05671573e-01,
          8.05670977e-01 ]
      - [ -4.37335521e-01, 5.13066873e-02, 0., 0., 2.79263228e-01,
          -1.12494421e+00, -4.97872651e-01, -2.71781087e-01,
          4.72911298e-01, -2.63652839e-02, 4.03847277e-01,
          3.16230267e-01, -1.88720748e-01, 3.50226492e-01,
          3.96020114e-01, 2.77214080e-01, -3.86028826e-01,
          -1.61533475e+00, 1.16662371e+00, 8.34739923e-01,
          1.26118302e-01, -7.49776304e-01, 3.01994771e-01,
          3.21663141e-01, -8.81218433e-01, -7.12958634e-01,
          -1.23170984e+00, -7.69653738e-01, 6.08051658e-01,
          1.39331186e+00, -1.24533498e+00, 1.24533415e+00 ]
      - [ -3.60663012e-02, 4.07635123e-02, -1.76872477e-01,
          -5.12930155e-01, 7.03466386e-02, -1.33715821e-02,
          -4.70186234e-01, -3.08352500e-01, 2.31300026e-01,
          1.67920485e-01, 7.01591671e-01, 2.60884672e-01,
          -3.26096207e-01, 2.06994504e-01, 2.95430750e-01,
          -1.31356865e-01, -6.85105443e-01, -7.21563637e-01,
          1.36169696e+00, 4.49721068e-02, -6.05158731e-02,
          4.02306944e-01, 3.49963695e-01, -6.91754937e-01,
          5.20796895e-01, -1.14129198e+00, 6.16722815e-02,
          -1.46834135e+00, 2.80118853e-01, 1.12655020e+00,
          3.85954291e-01, -3.85954469e-01 ]
      - [ -4.70033348e-01, 3.35800558e-01, -6.80703461e-01,
          1.28804612e+00, 2.34964862e-01, -6.46287441e-01,
          1.80401826e+00, 1.02710688e+00, 1.29459336e-01,
          -9.04699802e-01, 7.78029740e-01, -1.21934623e-01,
          1.50649890e-01, 2.81946391e-01, -3.27571130e+00,
          6.93478510e-02, 4.73109931e-01, 2.41980267e+00,
          -1.19146153e-01, -2.77376723e+00, 4.50411364e-02,
          -9.33240414e-01, -1.37436736e+00, 2.26256633e+00,
          -2.68943012e-01, 2.33801460e+00, -5.45555234e-01,
          3.43846822e+00, -3.42644542e-01, -2.55026984e+00,
          1.03106093e+00, -1.03106260e+00 ]
      - [ 5.26736557e-01, 5.92615269e-03, -9.01487410e-01,
          3.31330955e-01, 6.68811351e-02, -9.67887282e-01,
          2.88392127e-01, 4.65882301e-01, 2.85290778e-01, 1.40402168e-01,
          -3.96466970e-01, -4.87211615e-01, 3.24145585e-01,
          6.72494292e-01, -2.54592091e-01, -9.98366922e-02,
          -3.74936610e-02, -1.46731779e-01, -4.57985699e-01,
          6.42211139e-01, 1.20305395e+00, -1.49064735e-01,
          -1.26415443e+00, 2.10165039e-01, -9.37454462e-01,
          1.08427083e+00, -3.68343383e-01, 1.84118018e-01,
          1.42233276e+00, -1.23810732e+00, -9.35559928e-01,
          9.35560524e-01 ]
      - [ -5.19271910e-01, -1.07231212e+00, -5.81852257e-01,
          7.21980870e-01, 7.19946921e-02, -1.09571910e+00,
          1.06436801e+00, 5.09048343e-01, 4.62763645e-02,
          -3.05770129e-01, 1.18704820e+00, -9.73349437e-02,
          1.05240773e-02, 1.18729329e+00, -1.24164176e+00,
          1.15368538e-01, -1.45145547e+00, 5.49692094e-01,
          8.30219030e-01, 7.15439022e-02, -3.90476793e-01,
          -1.28650820e+00, 4.27921921e-01, 1.24906242e+00,
          -3.12574476e-01, 1.49110270e+00, -2.61530876e+00,
          1.71354496e+00, 9.38323140e-01, -3.65600102e-02,
          8.49927008e-01, -8.49926174e-01 ]
      - [ 1.99956387e-01, -1.05572104e+00, -1.47427201e+00,
          6.99149609e-01, 2.31737614e-01, -1.10482395e+00,
          1.19823658e+00, 4.74594861e-01, 1.43445686e-01,
          -3.28261495e-01, 1.23303044e+00, -9.01925638e-02,
          2.81735271e-01, 9.80456829e-01, -1.38030171e+00,
          -8.77083559e-03, -1.63088715e+00, 7.99745023e-01,
          9.58021998e-01, -1.26880646e-01, 8.56875122e-01,
          -1.50834990e+00, -4.23306912e-01, 1.07478106e+00,
          3.19391966e-01, 1.85086036e+00, -1.72885096e+00,
          8.97709012e-01, 1.07737601e+00, -2.46234953e-01,
          9.98181760e-01, -9.98181522e-01 ]
      - [ -7.34853804e-01, -2.09857181e-01, 4.83261682e-02,
          7.31649876e-01, -3.51779222e-01, -4.68232483e-02,
          -1.80726752e-01, 8.30478370e-02, -5.05818278e-02,
          -8.84749174e-01, 3.84474806e-02, 9.66523409e-01,
          -9.40972924e-01, 7.34967649e-01, 0., 7.97381759e-01,
          -1.64734930e-01, -4.96281117e-01, 6.96398765e-02,
          5.91376424e-01, -2.07818747e+00, -4.06462014e-01,
          -9.39531028e-02, 2.57860303e+00, 5.41523919e-02,
          -1.27479851e+00, -1.34331357e+00, 6.82297289e-01,
          -1.14133644e+00, 1.80235279e+00, -1.07385182e+00,
          1.07385218e+00 ]
      - [ 2.33411416e-01, -7.12632596e-01, -1.90180957e+00,
          9.55248952e-01, 1.80247948e-01, -1.56874049e+00,
          1.45142412e+00, 7.66547441e-01, 1.18067555e-01,
          -8.47983062e-01, 1.52027357e+00, -1.49580508e-01,
          5.93155980e-01, 1.05852306e+00, -1.70859945e+00,
          1.24454759e-02, -1.42578185e+00, 8.29478920e-01,
          6.40777111e-01, -4.44753282e-02, 1.12488341e+00,
          -2.07083321e+00, -6.38711333e-01, 1.58466089e+00,
          1.97389886e-01, 2.15184617e+00, -1.86771357e+00,
          1.27141118e+00, 9.21763122e-01, -3.25461090e-01,
          5.54974496e-01, -5.54973900e-01 ]
      - [ 6.84934855e-01, -1.80927861e+00, -1.14693439e+00,
          1.22373796e+00, 2.23525763e-01, -3.66939127e-01,
          3.27146113e-01, 8.69982064e-01, -5.93884736e-02,
          1.04986608e+00, 2.18828127e-01, -2.94030279e-01,
          4.43626106e-01, 2.03147069e-01, -2.31606388e+00,
          7.47840524e-01, -1.04754043e+00, 1.05371475e+00,
          9.15275335e-01, -9.21451032e-01, 1.29269862e+00,
          -9.23204422e-01, -2.91702461e+00, 2.54752946e+00,
          1.28466427e+00, 3.04437613e+00, -1.26775730e+00,
          1.27393186e+00, 1.63725042e+00, -1.64342618e+00,
          1.22890162e+00, -1.22890341e+00 ]
      - [ 7.30436265e-01, 1.35726944e-01, -5.00083566e-01,
          -1.94071885e-02, -4.70641814e-02, -1.11360013e+00,
          -1.32018372e-01, 1.00958037e+00, -2.67813563e-01,
          -3.13460112e-01, -2.41672426e-01, 6.42271042e-01,
          6.08612537e-01, 6.90182865e-01, -6.78688407e-01,
          -5.03002107e-01, 3.46672416e-01, -2.83102393e-01,
          -1.80675164e-01, 1.17104933e-01, 1.02417135e+00,
          -6.01150632e-01, -1.55246258e+00, 1.12944221e+00,
          -1.12783813e+00, 1.43727109e-01, -2.94501215e-01,
          3.58071327e-01, 7.17521608e-01, -7.81091809e-01,
          -1.80075109e+00, 1.80075097e+00 ]
      - [ -3.73546988e-01, -9.05915022e-01, -1.33738422e+00,
          7.16585293e-02, 2.87823588e-01, -4.58113551e-01,
          7.29217172e-01, 8.42269182e-01, 3.86400044e-01, 2.93084890e-01,
          5.97286522e-01, 2.43819684e-01, 2.31090784e-01, 4.30441886e-01,
          -8.92581463e-01, -1.45551309e-01, -2.54518771e+00,
          1.40119636e+00, 1.52059090e+00, -3.76600057e-01,
          5.31767607e-01, -6.40501857e-01, -9.03462172e-01,
          1.01219594e+00, -3.79925281e-01, 1.32505155e+00,
          -1.44975209e+00, 3.05760980e-01, 1.34101760e+00,
          -1.97026730e-01, 1.16147518e+00, -1.16147518e+00 ]
      - [ 7.56122172e-02, -1.09584868e+00, -1.36773670e+00,
          5.92394948e-01, -6.68627694e-02, -2.84805059e-01,
          6.17918670e-01, 1.67860985e-01, -2.05321342e-01,
          3.06464493e-01, 6.42403424e-01, -1.69818357e-01,
          1.93631239e-02, 9.26494062e-01, -3.36765885e-01,
          1.78646997e-01, -1.79557848e+00, 4.34111774e-01,
          5.73728442e-01, 7.87738383e-01, -1.77208558e-01,
          -1.47695184e-01, -4.44180489e-01, 7.69084811e-01,
          6.11857474e-01, 1.53614140e+00, -1.37190449e+00,
          1.04378024e-02, 1.04700041e+00, 3.14466089e-01, 1.28198159e+00,
          -1.28198183e+00 ]
      - [ -2.97599345e-01, -5.94629705e-01, -8.00064862e-01,
          -2.08222717e-02, 2.39456236e-01, 1.23454509e-02,
          5.92581630e-01, 3.50565284e-01, 1.79208189e-01, 2.59254485e-01,
          5.67890763e-01, 1.18220501e-01, 1.01437531e-01, 5.17712347e-02,
          -8.00064862e-01, 4.04498540e-02, -1.71311593e+00,
          1.19494867e+00, 1.12457383e+00, -6.06406033e-01,
          2.22502932e-01, -2.71258533e-01, -4.39657301e-01,
          4.88413483e-01, 3.23086679e-01, 9.32451367e-01,
          -6.40427291e-01, 1.22259751e-01, 5.91671467e-01,
          -7.35036954e-02, 1.43207240e+00, -1.43207312e+00 ]
      - [ -3.30021590e-01, -1.12048614e+00, -1.35860360e+00,
          2.23827511e-02, 2.17791036e-01, -4.42067504e-01,
          6.69402242e-01, 6.56853080e-01, 2.22562835e-01, 1.79853588e-01,
          5.92288256e-01, 8.54185745e-02, -8.78967941e-02,
          8.35678399e-01, -1.10516876e-01, -3.26383375e-02,
          -2.78672862e+00, 1.10197854e+00, 1.08012307e+00,
          6.04626417e-01, 2.24354006e-02, -5.47021627e-01,
          -2.07429916e-01, 7.32015967e-01, -2.12439179e-01,
          7.83741832e-01, -1.67478395e+00, -9.96533968e-03,
          1.15019798e+00, 5.34551561e-01, 9.99476433e-01,
          -9.99476731e-01 ]
      - [ -2.47832105e-01, -5.95591009e-01, -8.63443434e-01,
          -1.33036980e-02, -4.88302223e-02, -4.22992736e-01,
          3.57001334e-01, 6.70982957e-01, -4.80395705e-02,
          -1.08273700e-01, 2.30736896e-01, 4.18451995e-01,
          -3.23223509e-02, 4.03980583e-01, -2.63553374e-02,
          3.25830370e-01, -1.72017014e+00, 5.56161225e-01,
          4.92875576e-01, 6.71133280e-01, -3.77024204e-01,
          -7.22876847e-01, -3.02060634e-01, 1.40196157e+00,
          -1.14257485e-01, 2.03101620e-01, -1.31524622e+00,
          1.51237115e-01, 2.15344906e-01, 9.48663950e-01, 5.64717650e-02,
          -5.64714298e-02 ]
      - [ 1.31002635e-01, -8.99672449e-01, -1.06786227e+00,
          4.58940506e-01, 2.55165488e-01, -4.88332883e-02,
          6.35787845e-01, 5.00718415e-01, 9.19975638e-02, 1.64769992e-01,
          3.14258367e-01, 6.00480475e-02, 2.14188635e-01, 5.90959847e-01,
          -1.24289191e+00, -1.58577248e-01, -1.37759149e+00,
          1.34283853e+00, 6.31073773e-01, -5.96320987e-01,
          6.92354500e-01, -1.92775890e-01, -1.36070800e+00,
          8.61129761e-01, 2.37850353e-01, 1.47368693e+00,
          -5.62337756e-01, 5.27584493e-01, 1.06191587e+00,
          -1.02716303e+00, 1.06598294e+00, -1.06598353e+00 ]
      - [ -1.87861666e-01, -3.98736328e-01, -5.46693146e-01,
          1.65613275e-02, 4.83485669e-01, -3.72904867e-01,
          4.36996669e-01, 6.04357123e-01, 4.74187881e-01,
          -8.53952616e-02, 4.55592275e-01, 3.71912062e-01,
          -2.26656452e-01, -1.14789322e-01, -6.07401311e-01,
          -3.02654862e-01, -1.11672986e+00, 1.15193462e+00,
          1.21629679e+00, -1.25150192e+00, 5.43155491e-01,
          -9.71825898e-01, -2.61505544e-01, 6.90175474e-01,
          -4.07829165e-01, 1.41506299e-01, -4.76017207e-01,
          5.11222005e-01, 4.73467298e-02, -8.25518593e-02,
          4.34288859e-01, -4.34288949e-01 ]
      - [ -2.15863124e-01, -9.34305668e-01, -9.73834395e-01,
          1.04841687e-01, 7.08533823e-01, -9.90988374e-01,
          -2.05101833e-01, 9.61475074e-01, -9.02448446e-02,
          2.64554828e-01, 4.84360129e-01, -1.23380780e-01,
          1.79637283e-01, 7.20466971e-01, 0., 1.09849371e-01,
          -2.01916146e+00, 4.73918438e-01, 5.35289228e-01,
          1.00995374e+00, 5.82062960e-01, -9.40272272e-01,
          -6.94576204e-01, 1.05278540e+00, -6.12641871e-01,
          3.43931794e-01, -1.43262327e+00, -1.12619624e-01,
          1.07441413e+00, 4.70828682e-01, -4.47175503e-01,
          4.47175503e-01 ]
      - [ -2.69160479e-01, -4.77041930e-01, -5.21989286e-01,
          -1.43360272e-01, 2.64065623e-01, 0., 2.52828807e-01,
          4.86325435e-02, 2.58447200e-01, 1.46078870e-01, 2.13499889e-01,
          -9.18279141e-02, 1.68552533e-01, 2.35973537e-01, 0.,
          -8.46991614e-02, -1.41155171e+00, 5.65526903e-01,
          5.26198030e-01, 3.19826931e-01, 4.21904862e-01,
          -9.49895158e-02, -5.56605719e-02, -2.71254808e-01,
          -1.40359774e-01, 4.24099922e-01, -4.82136756e-01,
          -3.63888234e-01, 8.09052169e-01, 3.69728357e-02,
          6.12407506e-01, -6.12407327e-01 ]
      - [ -1.39790669e-01, -4.89236206e-01, -7.07135439e-01,
          1.70872763e-01, 2.42818400e-01, -6.04282141e-01,
          6.30923450e-01, 8.72553706e-01, 2.54608840e-01,
          -2.33689547e-01, 6.57771289e-01, 5.36956131e-01,
          -2.68234074e-01, -6.47431836e-02, -6.53439820e-01,
          -2.05953345e-01, -1.16528964e+00, 1.14201331e+00,
          1.21564651e+00, -1.19237041e+00, 8.94025490e-02,
          -1.39195120e+00, -7.18806759e-02, 1.37442899e+00,
          -2.92255044e-01, 2.99872637e-01, -9.90490735e-01,
          9.67214525e-01, -3.12058061e-01, 3.35334122e-01,
          4.50723052e-01, -4.50722694e-01 ]
      - [ -1.87969685e-01, -4.79859680e-01, -6.48486316e-01,
          2.62817949e-01, 3.61575514e-01, -7.97655165e-01,
          5.72467804e-01, 8.79134715e-01, 6.45136237e-01, 3.22476357e-01,
          -1.70944139e-01, 1.84252530e-01, -2.64470130e-01,
          2.12223157e-01, -6.97865069e-01, -1.92834169e-01,
          -1.05349767e+00, 1.01552284e+00, 9.80920911e-01,
          -9.42946434e-01, 5.54271936e-01, -7.42815435e-01,
          -9.44828033e-01, 1.13337076e+00, -1.34940314e+00,
          8.93292069e-01, -1.10390890e+00, 1.06593418e+00,
          9.15365398e-01, -8.77391100e-01, -7.36551657e-02,
          7.36549050e-02 ]
      - [ -2.69610584e-01, -6.95893288e-01, -9.18886721e-01,
          -1.89432263e-01, -1.12139736e-03, -2.87712783e-01,
          2.29000762e-01, 7.16558635e-01, -4.66171876e-02,
          3.75660770e-02, 4.30447817e-01, 5.57483554e-01, 5.43866679e-02,
          -1.16062269e-01, 6.78431839e-02, 4.32049781e-01,
          -2.07382274e+00, 6.56725109e-01, 9.78880048e-01,
          4.38217282e-01, -2.62962371e-01, -1.06210220e+00,
          -1.91595152e-01, 1.51665950e+00, 3.05174112e-01,
          1.31521329e-01, -1.25433791e+00, -1.62759423e-01,
          -7.07268938e-02, 1.48782432e+00, 4.09301877e-01,
          -4.09301400e-01 ]
      - [ -3.72835696e-01, -9.05655682e-01, -7.53711700e-01,
          5.09493887e-01, 3.20779234e-01, -1.31278765e+00,
          1.21711195e+00, 7.32980847e-01, 2.06553981e-01, 6.22862615e-02,
          7.66750515e-01, 9.67239588e-03, 1.01796165e-02, 1.41937244e+00,
          -1.83158982e+00, -7.86009431e-02, -1.52270901e+00,
          9.58084226e-01, 1.04526281e+00, -4.80639219e-01,
          1.64677292e-01, -7.36784458e-01, -6.01439357e-01,
          1.17354596e+00, -9.97474074e-01, 1.79907203e+00,
          -2.27049994e+00, 1.70587516e+00, 1.69839180e+00,
          -1.13376820e+00, 7.33361006e-01, -7.33360529e-01 ]
      - [ -1.78350598e-01, 1.53623626e-01, 3.41385864e-02,
          1.00708830e+00, -5.51267684e-01, -8.88729870e-01,
          2.42954795e-03, 1.98279813e-01, -4.20834512e-01,
          -1.15019299e-01, -1.05563551e-01, -1.92399979e-01,
          -3.26007187e-01, 8.19326043e-01, 0., 5.63286662e-01,
          1.01650000e+00, -1.23928821e+00, -8.33817244e-01,
          1.05660558e+00, -1.47645962e+00, -3.07995006e-02,
          -6.89953715e-02, 1.57625496e+00, -6.09357238e-01,
          5.68491697e-01, -1.46472454e+00, 1.24193633e+00,
          -4.25349995e-02, 2.65323251e-01, -1.10688317e+00,
          1.10688341e+00 ]
      - [ -2.99386591e-01, -6.37243748e-01, -6.81336105e-01,
          3.40447575e-01, 5.78049898e-01, 1.01412255e-02, 4.86778855e-01,
          2.05525190e-01, 3.53675276e-01, 1.87667802e-01, 3.99035215e-01,
          7.69961849e-02, -2.46971920e-01, -4.90526669e-02,
          -7.48797238e-01, 2.44712383e-02, -1.27751887e+00,
          1.28049517e+00, 1.01737440e+00, -1.02035069e+00,
          3.85366738e-01, -4.88487422e-01, -5.44319272e-01,
          6.47440135e-01, 1.34261116e-01, 7.67922401e-01,
          -3.48439187e-01, 3.51415485e-01, 2.45318413e-01,
          -2.48294517e-01, 1.08362317e+00, -1.08362353e+00 ]
      - [ -8.41011286e-01, -6.83905959e-01, -2.70753562e-01,
          1.61440051e+00, 1.26964724e+00, -8.79657567e-01,
          -3.88183028e-01, -2.19432756e-01, 1.22213054e+00,
          -2.79165059e-01, -5.70376754e-01, -7.05599785e-01,
          -7.05393851e-01, 6.81040347e-01, -9.47753936e-02,
          8.51036012e-01, -1.81270346e-01, -2.17626229e-01,
          -3.33011329e-01, 7.31906950e-01, 9.45372701e-01,
          -1.16168833e+00, -1.32408917e+00, 1.54040360e+00,
          -1.44000971e+00, 2.41658628e-01, -1.13492775e+00,
          7.36031055e-01, 9.18611586e-01, -5.19715965e-01,
          -2.11738229e+00, 2.11738181e+00 ]
      - [ -1.78877756e-01, 1.01878852e-01, 1.31457858e-02,
          2.17207819e-01, 4.19058979e-01, -9.96973991e-01,
          -2.43256554e-01, 4.42193002e-01, 2.53917158e-01,
          -3.51605713e-01, -3.85634750e-01, 2.05749556e-01,
          8.33509043e-02, 7.12772369e-01, -1.58829857e-02,
          -2.77042806e-01, 1.53354794e-01, -3.78978521e-01,
          -2.77573913e-01, 5.03197432e-01, 5.77449322e-01,
          -5.33928514e-01, -6.31628513e-01, 5.88107884e-01,
          -1.83852935e+00, -2.94303447e-01, -6.54913902e-01,
          4.29290175e-01, 6.98434651e-01, -4.72810805e-01,
          -1.97747135e+00, 1.97747123e+00 ]
      - [ -2.11427599e-01, 5.09590544e-02, 2.22179499e-02,
          6.55429542e-01, 2.05959186e-01, -9.48051870e-01,
          9.39242020e-02, 2.14411452e-01, 1.64607123e-01,
          -5.35913587e-01, -1.10073693e-01, -1.59184113e-01,
          -2.87704825e-01, 4.78250951e-01, 0., 3.66596192e-01,
          5.17178953e-01, -4.33756918e-01, -6.40564203e-01,
          5.57142317e-01, -1.28565997e-01, -9.54755485e-01,
          6.06847228e-03, 1.07725310e+00, -9.02956784e-01,
          -7.42645860e-02, -9.02561307e-01, 9.85983133e-01,
          -1.80760533e-01, 9.73384976e-02, -1.50011504e+00,
          1.50011480e+00 ]
      - [ 9.66412961e-01, 7.29482889e-01, -9.04969811e-01,
          -4.44443315e-01, 2.72904158e-01, -6.65530443e-01,
          -8.21023941e-01, 6.40046537e-01, 7.20526949e-02,
          -1.98869812e+00, 2.72770309e+00, -6.99739456e-01,
          -2.70727253e+00, 2.91444778e+00, 0., -9.13725570e-02,
          3.46482813e-01, -5.73603153e-01, 1.11318663e-01,
          1.15802288e-01, -1.39590192e+00, 9.89701748e-01,
          1.00170946e+00, -5.95507920e-01, 2.93721342e+00,
          -5.96143675e+00, 1.30326927e+00, -1.53039062e+00,
          -1.70947146e+00, 1.93659151e+00, -7.47549713e-01,
          7.47548401e-01 ]
      - [ 5.17704189e-01, -1.00159110e-03, -7.29416490e-01,
          -2.07952280e-02, 1.49741232e-01, -9.05496776e-01,
          -3.43736559e-01, 2.01235756e-01, 8.44888687e-02,
          4.59598660e-01, -3.51117641e-01, -4.37129915e-01,
          4.20634657e-01, 6.02814019e-01, 4.82417464e-01,
          -1.29940644e-01, -2.33509004e-01, -8.98256183e-01,
          -2.44159922e-01, 1.37592554e+00, 1.17256904e+00,
          1.55914322e-01, -9.41853106e-01, -3.86630028e-01,
          -8.68850946e-01, 5.15701532e-01, -2.39052922e-01,
          -8.92712414e-01, 1.56753623e+00, -4.35770869e-01,
          -1.14075208e+00, 1.14075255e+00 ]
      - [ -3.96539003e-01, -1.90833962e+00, -5.21973968e-01,
          2.98950106e-01, -5.53705439e-04, -1.31314909e+00,
          2.86221892e-01, 4.94368598e-02, 9.89896208e-02,
          -1.35333166e-01, 1.26284373e+00, 8.79228581e-03,
          4.29138616e-02, 1.74612474e+00, 3.30290407e-01, 1.51325151e-01,
          -2.52790260e+00, -9.78043973e-01, 1.23529267e+00,
          2.27065396e+00, -2.55188793e-01, -1.61069715e+00,
          1.35738230e+00, 5.08504093e-01, -2.95519680e-01,
          4.92752492e-01, -3.61858201e+00, 1.12635106e-01,
          1.75269449e+00, 1.75325167e+00, 1.00583293e-01,
          -1.00581728e-01 ]
      - [ 4.34820116e-01, -1.87100172e+00, -1.80561781e+00,
          1.68260291e-01, 2.73749173e-01, -1.44302404e+00,
          4.25150186e-01, 3.43812138e-01, 2.84049839e-01,
          -4.29706156e-01, 1.36661530e+00, 2.55439848e-01,
          1.22128285e-01, 1.61075032e+00, 2.71769166e-01,
          -7.19488133e-03, -3.07353902e+00, -4.00312632e-01,
          1.47639906e+00, 1.99745262e+00, 1.11474752e+00,
          -2.13298178e+00, 2.57916898e-01, 7.60317743e-01,
          3.51216376e-01, 2.85832852e-01, -2.60545611e+00,
          -8.68395269e-01, 1.58722198e+00, 1.88662910e+00,
          -8.09648484e-02, 8.09671655e-02 ]
      - [ -4.54826862e-01, -1.44009754e-01, 1.18315637e-01,
          1.12420291e-01, -2.21092105e-01, 1.70760274e-01,
          -6.30800962e-01, -1.55800417e-01, -2.03031287e-01,
          -2.85225213e-01, 5.63975796e-02, 6.76089346e-01,
          -6.54177845e-01, 4.14922595e-01, 8.28209460e-01,
          3.71849149e-01, -3.68100643e-01, -8.36933076e-01,
          2.44230524e-01, 9.60803449e-01, -1.53312814e+00,
          1.56448022e-01, 3.72121781e-01, 1.00455844e+00, 1.44180134e-01,
          -1.45778346e+00, -6.49168313e-01, -5.55865467e-01,
          -7.27511644e-01, 1.93254566e+00, -6.88868225e-01,
          6.88868225e-01 ]
      - [ 7.12582588e-01, -1.58333874e+00, -2.87149525e+00,
          2.52235949e-01, 3.90118897e-01, -2.22825193e+00,
          4.41931397e-01, 9.12857234e-01, 2.90902406e-01,
          -9.31980252e-01, 1.94692636e+00, 5.18266737e-01,
          3.20045799e-01, 1.63948405e+00, 1.26538664e-01, 6.31767437e-02,
          -3.49001503e+00, -4.83344495e-01, 1.82411563e+00,
          2.14924479e+00, 1.71365011e+00, -3.10408735e+00,
          -3.56098652e-01, 1.74653614e+00, 4.94433582e-01,
          8.22326913e-02, -2.70888877e+00, -1.26447034e+00,
          1.31845152e+00, 2.65490842e+00, -7.71374404e-01,
          7.71379590e-01 ]
      - [ 1.16291142e+00, -4.74325228e+00, -7.34641850e-01,
          3.22843403e-01, 5.57266772e-01, 5.44438958e-01,
          -3.05549812e+00, 1.09103048e+00, 6.12695098e-01,
          3.05522132e+00, -9.54795301e-01, 5.13292968e-01,
          -2.29831129e-01, 2.29502499e-01, 9.89777803e-01,
          6.39038205e-01, -3.99213934e+00, -8.62760961e-01,
          3.22641444e+00, 1.62848687e+00, 2.10304284e+00,
          -9.14088428e-01, -3.75515747e+00, 2.56620455e+00,
          1.39159334e+00, 9.27350149e-02, -2.47863483e+00,
          -2.37626576e+00, 3.66758680e+00, 1.18731403e+00,
          -4.10633028e-01, 4.10636246e-01 ]
      - [ 6.77837670e-01, 7.35988170e-02, -4.01049465e-01,
          -5.36778927e-01, -1.00920111e-01, -8.71751308e-01,
          -8.70671928e-01, 8.20009530e-01, -3.28192711e-01,
          -7.47118890e-02, -1.17076740e-01, 7.98827112e-01,
          5.50743103e-01, 6.85730457e-01, 3.27045858e-01,
          -6.32639527e-01, -1.86391950e-01, -1.02333391e+00,
          2.78845638e-01, 9.30880070e-01, 7.99468040e-01,
          -1.87133849e-01, -1.06175196e+00, 4.49418277e-01,
          -9.43629682e-01, -9.31419671e-01, -2.21234947e-01,
          -9.88490760e-01, 8.33568990e-01, 3.76156688e-01,
          -1.93421173e+00, 1.93421173e+00 ]
      - [ -4.45048928e-01, -1.26926541e+00, -1.38608515e+00,
          -4.88626271e-01, 1.52337000e-01, -4.01766002e-01,
          -2.65476167e-01, 5.76038778e-01, 3.64960670e-01,
          5.55648625e-01, 3.99888873e-01, 5.76038778e-01, 2.05189198e-01,
          7.10157037e-01, 7.10157037e-01, 5.85201290e-03,
          -3.58902550e+00, 6.11335337e-02, 1.89653730e+00,
          1.63135588e+00, 2.77438402e-01, -4.05225873e-01,
          -5.41515589e-01, 6.69303060e-01, -4.41073686e-01,
          6.73543010e-03, -1.96374333e+00, -1.56414843e+00,
          1.83595622e+00, 1.69193649e+00, 2.88295269e-01,
          -2.88295269e-01 ]
      - [ 1.41408309e-01, -1.18391168e+00, -1.10919631e+00,
          1.52598426e-01, -2.08824351e-01, -9.03126448e-02,
          -2.15882808e-02, -5.63980378e-02, -1.51289999e-01,
          4.76043731e-01, 4.24500436e-01, -1.94638714e-01,
          1.73532516e-02, 8.80367517e-01, 7.86267519e-01, 1.37620926e-01,
          -1.99910152e+00, -3.77123177e-01, 5.54615438e-01,
          1.82160914e+00, -2.01352641e-01, 8.21870267e-02,
          7.99834356e-02, 3.91827747e-02, 6.13216877e-01, 6.24407172e-01,
          -1.34164047e+00, -1.03458416e+00, 1.22247434e+00,
          1.15375018e+00, 7.88643301e-01, -7.88642406e-01 ]
      - [ -3.83911133e-01, -8.44716668e-01, -9.56008494e-01,
          -4.45272386e-01, 1.71110317e-01, 1.82611123e-01,
          1.82611123e-01, 2.39589468e-01, 1.56839401e-01, 7.07618117e-01,
          7.07618117e-01, 1.83943555e-01, 2.13186592e-02, 2.69990833e-03,
          2.69990833e-03, 7.12491497e-02, -2.62990832e+00,
          7.75922000e-01, 1.75601935e+00, 9.79682580e-02,
          -3.46423164e-02, 4.82123941e-02, -6.30794317e-02,
          4.95095365e-02, 5.77567339e-01, 4.66275334e-01,
          -8.74906182e-01, -9.79080141e-01, 8.88476253e-01,
          9.65510607e-01, 1.78045833e+00, -1.78045976e+00 ]
      - [ -3.88701648e-01, -7.43040740e-01, -7.83194780e-01,
          -3.63659352e-01, 7.79341310e-02, -1.57470852e-01,
          -1.23570032e-01, 1.22394837e-01, 1.12721615e-01,
          2.20694497e-01, 2.94749409e-01, 1.02647141e-01,
          -2.05592401e-02, 8.07392836e-01, 8.50344181e-01,
          -8.68202839e-03, -2.27859640e+00, -8.07119757e-02,
          7.30812788e-01, 1.62849581e+00, -2.18604922e-01,
          1.27575815e-01, 2.38328874e-01, -1.47299618e-01,
          -2.60105163e-01, -2.87094086e-01, -1.21127892e+00,
          -1.14802909e+00, 1.12024975e+00, 1.23905861e+00,
          2.34402969e-01, -2.34403104e-01 ]
      - [ -2.45455667e-01, -5.47537982e-01, -6.46898091e-01,
          -2.49653742e-01, -4.24607322e-02, -2.21137777e-01,
          -4.64132503e-02, 4.48131591e-01, -3.83248255e-02,
          -4.28094007e-02, 8.12416375e-02, 4.24545735e-01,
          -1.72366742e-02, 3.73822778e-01, 4.87155944e-01,
          2.83030480e-01, -1.68954551e+00, 1.38119802e-01,
          4.24653202e-01, 1.12677252e+00, -3.43477756e-01,
          -4.37662303e-01, -1.24913745e-01, 9.06054020e-01,
          -1.02321334e-01, -3.56113106e-01, -1.05659223e+00,
          -4.94833469e-01, 2.75451809e-01, 1.27597380e+00,
          -2.29118809e-01, 2.29119211e-01 ]
      - [ 7.27035761e-01, -1.92169607e+00, -1.85176027e+00,
          5.76433897e-01, -5.05758040e-02, 1.75584480e-01,
          3.90915573e-01, 5.89782484e-02, -4.85442281e-02,
          1.03855693e+00, 2.38755733e-01, -2.77825948e-02,
          1.91168964e-01, 1.44343841e+00, -4.05018598e-01,
          -5.35490513e-01, -2.46998644e+00, 5.74902594e-01,
          1.20098591e+00, 6.94098353e-01, 8.19085360e-01, 7.35883713e-01,
          -1.62710738e+00, 7.21386001e-02, 6.05885446e-01,
          2.19707513e+00, -1.06965148e+00, -8.25432122e-01,
          2.62462020e+00, -7.29536295e-01, 1.84381270e+00,
          -1.84381247e+00 ]
      - [ -2.16780633e-01, -6.63251698e-01, -6.63251698e-01,
          -2.11928636e-01, 6.75814986e-01, -5.06514668e-01,
          1.35162994e-01, 7.26501048e-01, 6.92710280e-01,
          -8.73650014e-02, 5.23756564e-01, 7.26501048e-01,
          -4.38759863e-01, -1.82816640e-01, -1.21704429e-01,
          -3.88073742e-01, -1.75521255e+00, 1.03096437e+00,
          1.85560310e+00, -1.13135445e+00, 7.12984920e-01,
          -1.43994820e+00, -1.26036614e-01, 8.52999568e-01,
          -5.87612450e-01, -6.02890611e-01, -7.10731983e-01,
          -1.35161811e-02, -1.62310842e-02, 7.40479410e-01,
          6.50398061e-02, -6.50399327e-02 ]
      - [ -2.40512401e-01, -6.10431731e-01, -5.39893806e-01,
          -2.35566661e-01, 4.49734151e-01, -5.25373280e-01,
          -5.52455723e-01, 4.12192583e-01, -6.12856857e-02,
          2.81431556e-01, 2.56769180e-01, -5.32466881e-02,
          1.58956453e-01, 5.78728914e-01, 6.37019217e-01, 4.39339317e-02,
          -1.62640452e+00, -2.15902284e-01, 4.23668474e-01,
          1.41863859e+00, 3.06892604e-01, -2.75644481e-01,
          -1.98561147e-01, 1.67313188e-01, -4.65182543e-01,
          -3.47634465e-01, -9.26583230e-01, -9.15723681e-01,
          9.57831204e-01, 8.84475589e-01, -5.39628327e-01,
          5.39628446e-01 ]
      - [ -2.97938913e-01, -4.04340476e-01, -4.04340476e-01,
          -2.34704524e-01, 2.02669665e-01, 4.05339338e-02,
          4.05339338e-02, -7.03350827e-02, 2.07736388e-01,
          1.57068983e-01, 1.57068983e-01, -7.03350827e-02,
          1.57068983e-01, 2.88804263e-01, 2.88804263e-01,
          -5.82947731e-02, -1.34132421e+00, 2.13402435e-01,
          4.51539308e-01, 6.76382840e-01, 2.69536167e-01, 8.20666850e-02,
          8.20666850e-02, -4.33669537e-01, -1.58630759e-01,
          1.19967364e-01, -4.59075779e-01, -6.68846190e-01,
          8.10678661e-01, 3.17243397e-01, 3.95205796e-01,
          -3.95205647e-01 ]
      - [ -1.95837006e-01, -8.42395127e-01, -8.53406668e-01,
          -2.13157982e-01, 2.77722299e-01, -6.55158877e-01,
          1.88723817e-01, 1.01439059e+00, 3.62677038e-01,
          -1.78647205e-01, 7.31304765e-01, 1.01439059e+00,
          -5.13798475e-01, 1.28635932e-02, 1.37393385e-01,
          -2.87064224e-01, -2.10479665e+00, 8.25677752e-01,
          1.92972541e+00, -6.50605142e-01, -6.92359433e-02,
          -1.66333783e+00, 2.04015255e-01, 1.52855849e+00,
          -4.06755298e-01, -7.16879904e-01, -1.41566861e+00,
          1.36549756e-01, -3.16904724e-01, 1.59602439e+00,
          8.62223506e-02, -8.62220079e-02 ]
      - [ -1.76199257e-01, -8.73870790e-01, -7.40841568e-01,
          1.24503085e-02, 4.55657125e-01, -1.16394210e+00,
          1.65418889e-02, 1.10839915e+00, 9.80950713e-01, 7.20365107e-01,
          -6.00523889e-01, 5.23010135e-01, -5.60321450e-01,
          4.02850330e-01, 2.95961022e-01, -4.00486350e-01,
          -1.77846134e+00, 4.16655928e-01, 1.62380219e+00,
          -2.61995852e-01, 7.00087130e-01, -9.14597332e-01,
          -1.02886260e+00, 1.24337292e+00, -2.34115124e+00,
          1.89035714e-01, -1.75835466e+00, 3.96550000e-01,
          1.54384470e+00, -1.82038918e-01, -1.02755928e+00,
          1.02755880e+00 ]
      - [ -1.27304569e-01, -6.29508853e-01, -6.29508853e-01,
          -4.09911394e-01, -1.98730901e-02, -1.08132906e-01,
          -2.40055069e-01, 4.23296481e-01, -3.57715115e-02,
          9.11238939e-02, 1.67752132e-01, 5.49198270e-01, 4.34285253e-02,
          -1.49924785e-01, 7.09059656e-01, 3.66132170e-01,
          -1.79623377e+00, 5.52353524e-02, 7.72302866e-01,
          9.68695521e-01, -1.39520466e-01, -7.96442568e-01,
          7.24784192e-03, 9.28715527e-01, 2.98446685e-01,
          -5.15414059e-01, -8.84819388e-01, -8.56178701e-01,
          -5.11439890e-02, 1.79214215e+00, -8.93119797e-02,
          8.93124864e-02 ]
      - [ -1.70596734e-01, -2.14069724e+00, -8.53137970e-01,
          -2.51661181e-01, 4.35345054e-01, -2.03769255e+00,
          2.60206282e-01, 4.35345054e-01, 3.88769776e-01, 6.14025176e-01,
          5.94317257e-01, 3.69061857e-01, 1.07779326e-02, 2.69428992e+00,
          -1.65207908e-01, -1.83145255e-01, -3.41609311e+00,
          -9.06796575e-01, 1.96617460e+00, 2.35671377e+00,
          6.64296865e-01, -8.70074153e-01, -1.63822100e-01,
          3.69600475e-01, -1.79711807e+00, 6.33348346e-01,
          -3.91364217e+00, -4.09247547e-01, 3.70786214e+00,
          6.15025342e-01, -5.69144249e-01, 5.69145977e-01 ]
      - [ -2.38785729e-01, 9.42061394e-02, 1.31888583e-01,
          4.71030682e-01, -6.77112758e-01, -5.03246248e-01,
          -5.13008595e-01, 1.41211554e-01, -4.33543533e-01,
          1.08751930e-01, -2.24532839e-02, -2.98482120e-01,
          -3.51833135e-01, 7.53649116e-01, 9.23220158e-01,
          4.14507002e-01, 4.58339691e-01, -1.55215597e+00,
          -6.45727098e-01, 1.73954320e+00, -1.70127499e+00,
          4.53361034e-01, 5.19647062e-01, 7.28267133e-01,
          -3.49978238e-01, -2.85059094e-01, -1.32493877e+00,
          2.31122330e-01, 7.70244151e-02, 1.01679170e+00,
          -9.29956019e-01, 9.29955721e-01 ]
      - [ -4.84704852e-01, -1.12017560e+00, -9.90545273e-01,
          2.47284085e-01, 9.01776612e-01, 1.80355325e-01, 1.80355325e-01,
          7.82010034e-02, 5.51633656e-01, 6.50265455e-01, 5.69246471e-01,
          1.43016174e-01, -6.13630831e-01, -1.73310161e-01,
          -1.73310161e-01, 5.35429567e-02, -2.34814143e+00,
          1.34068823e+00, 1.91416192e+00, -9.06708002e-01,
          3.55074763e-01, -4.62865114e-01, -4.14253652e-01,
          5.22043645e-01, 3.18440139e-01, 4.64274019e-01,
          -5.22748291e-01, -4.84704763e-01, 4.14958090e-01,
          5.92495441e-01, 1.58022237e+00, -1.58022344e+00 ]
      - [ -6.40234828e-01, -7.46550918e-01, 2.33858585e-01,
          8.35209250e-01, 1.19291878e+00, -7.15049863e-01,
          -1.61098492e+00, 1.40893785e-02, 1.23420238e+00,
          4.64025646e-01, -3.98500949e-01, -1.05079484e+00,
          -9.29097235e-01, 1.86976165e-01, 1.19494915e+00,
          7.34984159e-01, -3.17717880e-01, -1.11902654e+00,
          2.48931944e-01, 1.18781245e+00, 8.57789218e-01,
          -8.10598493e-01, -5.80677807e-01, 5.33488035e-01,
          -1.01880169e+00, -1.24084747e+00, -9.08916652e-01,
          -5.27827740e-01, 9.56107140e-01, 4.80637252e-01,
          -2.26050997e+00, 2.26051092e+00 ]
      - [ -2.09298477e-01, 4.67330515e-02, 8.93818215e-02,
          -1.78902581e-01, 3.08682650e-01, -6.34424806e-01,
          -7.18360960e-01, 2.15522170e-01, 1.66371867e-01,
          -1.27779633e-01, -2.23662943e-01, 2.67395288e-01,
          2.20884476e-02, 5.86802661e-01, 7.05524623e-01,
          -3.16073269e-01, -2.52086133e-01, -8.28580916e-01,
          8.23243856e-02, 9.98342454e-01, 2.87844360e-01,
          -1.28668666e-01, -1.47117406e-01, -1.20581817e-02,
          -1.38345969e+00, -1.00295484e+00, -4.88307565e-01,
          -5.92359483e-01, 6.47483349e-01, 4.33183789e-01,
          -1.70422852e+00, 1.70422852e+00 ]
      - [ -2.62197763e-01, 1.91652309e-02, 9.54679176e-02,
          3.40956867e-01, 1.66960120e-01, -7.78712213e-01,
          -3.53878677e-01, 1.17933996e-01, 1.22079201e-01,
          -4.06333596e-01, -5.36575168e-02, -1.16321959e-01,
          -3.44027430e-01, 4.84248310e-01, 6.68275416e-01,
          3.00042033e-01, 1.93392232e-01, -8.47696662e-01,
          -4.54233885e-01, 1.10853839e+00, -3.17185879e-01,
          -6.81632161e-01, 3.56207252e-01, 6.42610967e-01,
          -7.94525385e-01, -7.63282955e-01, -8.54784667e-01,
          2.00480044e-01, -1.44033685e-01, 7.98338056e-01,
          -1.59258199e+00, 1.59258187e+00 ]
      - [ 1.82218373e-01, 1.42257988e-01, -1.77250773e-01,
          -4.99843776e-01, 4.85144146e-02, 9.81878191e-02,
          -9.63166833e-01, 3.60381454e-02, 9.62414313e-03,
          -4.12115574e-01, 6.66895211e-01, -6.64979778e-03,
          -8.98589492e-01, 8.19633901e-01, 1.16707098e+00,
          -2.12824866e-01, -3.52618217e-01, -7.80426323e-01,
          2.57753938e-01, 8.75290334e-01, -6.58232570e-01,
          6.47964180e-01, 6.93548620e-01, -6.83280349e-01,
          7.34476447e-01, -2.77371550e+00, 4.71178502e-01,
          -1.60422325e+00, -4.81447071e-01, 1.61449170e+00,
          -6.10199451e-01, 6.10199630e-01 ]
      - [ -6.40993536e-01, -7.37778306e-01, 4.86609250e-01,
          4.87212278e-02, 1.88856348e-01, 4.26981986e-01, 3.06302398e-01,
          1.57288928e-02, -2.18615189e-01, -3.65107626e-01,
          6.74040616e-01, 4.47259605e-01, -3.27950180e-01,
          -1.22433282e-01, -4.90719557e-01, 3.09097469e-01,
          -8.43441248e-01, 9.37869668e-01, 5.37577331e-01,
          -6.32005513e-01, -9.98702466e-01, -7.98337340e-01,
          9.76232708e-01, 8.20807159e-01, 7.69126654e-01,
          -3.38034242e-01, -7.62933433e-01, 8.57361615e-01,
          -1.03410625e+00, 9.39678133e-01, 1.04221725e+00,
          -1.04221725e+00 ]
      - [ -3.18349689e-01, -5.16915917e-01, 1.88160628e-01,
          6.06963933e-02, 1.23660386e-01, 3.57283890e-01, 2.84901768e-01,
          -8.27877596e-02, -2.16725782e-01, -3.27895820e-01,
          9.25880373e-01, 4.34201300e-01, -3.18349689e-01,
          -2.72813678e-01, -4.65637594e-01, 1.44691110e-01,
          -5.86408615e-01, 6.83058321e-01, 8.15460205e-01,
          -9.12109971e-01, -7.29764819e-01, -7.60341644e-01,
          9.33305144e-01, 5.56801200e-01, 1.10950577e+00,
          -3.00647348e-01, -3.54321331e-01, 4.50970858e-01,
          -1.13578498e+00, 1.03913522e+00, 1.24017012e+00,
          -1.24017048e+00 ]
      - [ -4.57301885e-01, -8.89407545e-02, 4.08106238e-01,
          4.00844663e-02, -2.32635915e-01, 4.73972559e-01,
          -4.94716130e-02, -1.71586245e-01, -8.23632330e-02,
          -3.20776999e-01, 2.24117905e-01, 4.74360466e-01,
          -5.02282441e-01, -9.13082808e-02, 2.07656845e-01,
          1.68368876e-01, -9.80518907e-02, 2.02788394e-02,
          2.95338184e-01, -2.17564985e-01, -1.27458346e+00,
          -2.70534605e-02, 7.90409327e-01, 5.11227548e-01,
          4.09157485e-01, -8.32446456e-01, -3.04905921e-01,
          2.27132753e-01, -9.96730924e-01, 1.07450402e+00,
          3.27841848e-01, -3.27841759e-01 ]
      - [ -2.38194779e-01, -2.98687011e-01, 3.40218917e-02,
          1.42594665e-01, -5.89936934e-02, 1.46754175e-01,
          4.38092828e-01, 1.02807358e-02, -1.38188779e-01,
          -7.30851114e-01, 9.97548699e-01, 6.21448755e-01,
          -3.06250423e-01, -4.33031797e-01, -5.13556838e-01,
          3.27012599e-01, -3.60265374e-01, 5.36134124e-01,
          7.49957442e-01, -9.25826490e-01, -7.41627634e-01,
          -1.31581569e+00, 9.56106663e-01, 1.10133672e+00,
          1.23312080e+00, -4.56414074e-01, -4.49121386e-01,
          6.24989986e-01, -1.60832214e+00, 1.43245339e+00,
          8.51544499e-01, -8.51545453e-01 ]
      - [ -2.52411693e-01, -5.78295231e-01, 8.32337558e-01,
          7.74846897e-02, 1.03299133e-01, 9.53698456e-01,
          -2.64249176e-01, -1.37745515e-01, -2.27067649e-01,
          2.09534228e-01, 4.22996223e-01, 4.91963506e-01,
          -4.66961652e-01, -8.47959101e-01, -5.76002121e-01,
          2.59378344e-01, 7.91151822e-02, 6.55003190e-01, 8.97426486e-01,
          -1.63154447e+00, -8.43141913e-01, -2.63021588e-01,
          4.15082484e-01, 6.91081166e-01, 1.38366151e+00,
          -4.44191992e-01, 2.26290584e-01, 5.07827401e-01,
          -1.33245420e+00, 5.98335981e-01, 1.32197964e+00,
          -1.32198012e+00 ]
      - [ 0., 1.95239894e-02, 1.34495664e+00, -1.02201819e+00,
          -7.67123759e-01, 3.01539630e-01, -5.20075798e-01,
          6.75667942e-01, -1.86349109e-01, -1.59174597e+00,
          7.40965009e-01, 2.29236078e+00, 0., -6.13857880e-02,
          -4.49206382e-02, -1.18139446e+00, 3.42462510e-01,
          -3.09991807e-01, 1.25523067e+00, -1.28770077e+00,
          -9.53472793e-01, -1.33206809e+00, 1.52092528e+00,
          7.64615893e-01, -1.38889462e-01, -3.13384008e+00,
          -4.46060032e-01, 4.78530377e-01, -1.83948100e+00,
          1.80701029e+00, -1.06931734e+00, 1.06931806e+00 ]
      - [ -5.72203457e-01, -4.22018349e-01, 1.79545328e-01,
          -2.15399444e-01, 1.51648551e-01, 5.77599883e-01,
          8.68000463e-02, 1.00153878e-01, -8.27756077e-02,
          -3.01833656e-02, 6.05405092e-01, 5.41562736e-01,
          -3.04760516e-01, -4.30798978e-01, -2.44942591e-01,
          6.03667572e-02, -1.03007591e+00, 9.16202426e-01,
          1.03400898e+00, -9.20135319e-01, -8.08090985e-01,
          -3.05400878e-01, 6.26807809e-01, 4.86683965e-01,
          6.71168447e-01, -4.63543326e-01, -2.64973491e-01,
          1.51099771e-01, -8.48518372e-01, 9.62392032e-01,
          1.23962164e+00, -1.23962200e+00 ]
      - [ -2.44894117e-01, -6.16036654e-01, -6.05232529e-02,
          1.24281093e-01, -1.01038836e-01, 5.19966483e-01,
          1.06807701e-01, -2.00843841e-01, -3.36229175e-01,
          1.00505292e-01, 6.49749637e-01, 1.61361992e-01,
          -2.35823959e-01, -8.02308321e-02, -5.53545775e-03,
          2.18483970e-01, -7.97173083e-01, 3.24891627e-01,
          5.75387776e-01, -1.03106305e-01, -9.17986035e-01,
          -7.57957995e-02, 6.90498590e-01, 3.03283304e-01,
          1.14330602e+00, 9.57700908e-02, -4.42003280e-01,
          -3.02783381e-02, -5.51778674e-01, 1.02406013e+00,
          1.37702906e+00, -1.37702954e+00 ]
      - [ -3.38581294e-01, -2.46103391e-01, 6.54852241e-02,
          -1.56871527e-01, 1.03317074e-01, 4.30111229e-01,
          1.43370405e-01, 2.22816281e-02, -6.29381984e-02,
          8.72689411e-02, 4.55045193e-01, 2.43527636e-01,
          -1.92730889e-01, -3.52159023e-01, -2.52423078e-01,
          5.14000133e-02, -6.76070929e-01, 6.99080408e-01,
          7.22903609e-01, -7.45912850e-01, -4.90933210e-01,
          -8.08822662e-02, 4.11477715e-01, 1.60337761e-01,
          5.97975194e-01, -1.18963107e-01, -5.12563810e-02,
          7.42656961e-02, -5.20559132e-01, 4.97549802e-01,
          1.11579573e+00, -1.11579633e+00 ]
      - [ -6.09206855e-01, -4.48909342e-01, 6.07303120e-02,
          -2.45015398e-01, 1.07753463e-01, 4.74990994e-01,
          6.49186075e-02, -6.28245436e-03, -1.22793257e-01,
          -4.68327738e-02, 5.86932719e-01, 3.62668455e-01,
          -3.41155857e-01, -3.54101509e-02, 1.26029685e-01,
          7.15818256e-02, -1.24240136e+00, 6.41380727e-01,
          7.79975176e-01, -1.78954527e-01, -9.65402484e-01,
          -5.61612733e-02, 8.38611305e-01, 1.82952374e-01,
          5.24298787e-01, -5.68085432e-01, -4.75371689e-01,
          -1.25648931e-01, -5.46192050e-01, 1.14721262e+00,
          1.08000946e+00, -1.08000994e+00 ]
      - [ -4.00771469e-01, -3.55613977e-01, -8.05147290e-02,
          -1.57848120e-01, -1.69608127e-02, 1.99435592e-01,
          7.60696828e-02, 2.39582032e-01, -1.79440483e-01,
          -1.68542564e-01, 3.44643980e-01, 4.92371589e-01,
          -2.43947864e-01, -8.25752094e-02, 8.20370242e-02,
          2.52075315e-01, -9.94748235e-01, 4.98126537e-01,
          4.89032567e-01, 7.58927315e-03, -8.41120601e-01,
          -4.07296181e-01, 4.22235906e-01, 8.26180816e-01,
          3.95383537e-01, -4.94268924e-01, -5.73910773e-01,
          7.72887841e-02, -6.74506128e-01, 1.17112792e+00,
          4.51606631e-01, -4.51606601e-01 ]
      - [ -1.98516786e-01, -5.21380246e-01, 1.03226922e-01,
          1.44067615e-01, 4.74700555e-02, 7.15320349e-01, 2.57740349e-01,
          -1.14752330e-01, -2.49225557e-01, 9.07131732e-02,
          5.36813319e-01, 3.19351107e-01, -2.72960573e-01,
          -2.42276847e-01, -5.75814247e-01, -3.97763327e-02,
          -4.72602516e-01, 9.05778527e-01, 6.97652042e-01,
          -1.13082802e+00, -6.73232734e-01, 4.23763320e-02,
          3.21966320e-01, 3.08890015e-01, 1.01384068e+00, 2.19560489e-01,
          4.28932980e-02, 3.90282512e-01, -6.73749745e-01,
          2.40573794e-01, 1.60058713e+00, -1.60058773e+00 ]
      - [ -3.15728009e-01, -3.22462738e-01, 8.95418972e-03,
          -1.16668656e-01, 2.83166945e-01, 1.87285542e-01,
          1.30256787e-01, 2.09543526e-01, 1.41583472e-01,
          -1.22101970e-01, 4.09437060e-01, 4.24750388e-01,
          -3.17187220e-01, -3.06477338e-01, -2.11671650e-01,
          -8.26803595e-02, -7.45905221e-01, 8.10252845e-01,
          8.53668988e-01, -9.18016553e-01, -2.08164826e-01,
          -5.63756466e-01, 3.36976379e-01, 4.34944898e-01,
          1.98314294e-01, -4.25701112e-01, -1.67738289e-01,
          2.32085809e-01, -6.04183078e-01, 5.39835453e-01,
          6.04877412e-01, -6.04877412e-01 ]
      - [ -8.36849451e-01, -8.28981161e-01, 2.00470939e-01,
          -1.65448233e-01, 6.76185250e-01, 6.12790249e-02,
          -5.49522102e-01, 2.70548433e-01, -3.28133106e-01,
          4.18079871e-04, 9.05756056e-01, 4.37869936e-01,
          -2.39307001e-01, 2.87916232e-02, 2.32334629e-01,
          1.34587094e-01, -1.63080788e+00, 4.58490610e-01,
          1.01591098e+00, 1.56406343e-01, -7.28104293e-01,
          -7.38492310e-01, 7.89039433e-01, 6.77557290e-01,
          2.64772862e-01, -9.53859270e-01, -9.28366244e-01,
          -2.43950903e-01, -5.38230419e-01, 1.71054769e+00,
          4.17930961e-01, -4.17930871e-01 ]
      - [ -4.51668411e-01, -3.86807501e-01, -1.31996766e-01,
          -2.44349286e-01, 2.31646121e-01, 3.19671661e-01,
          1.06557213e-01, -9.95829329e-02, 1.15823060e-01,
          6.48609176e-02, 3.38203311e-01, 7.64681175e-02, 0.,
          9.26584471e-03, 8.33926052e-02, -3.14839371e-02,
          -1.21482182e+00, 5.58292091e-01, 5.95355451e-01,
          6.11745045e-02, -1.04199246e-01, 6.99088909e-03,
          3.96156371e-01, -2.98948050e-01, 1.74722657e-01,
          -7.29311705e-02, -2.87158161e-01, -3.69371831e-01,
          1.89949825e-01, 4.66580153e-01, 8.29293072e-01,
          -8.29293072e-01 ]
      - [ -3.41184348e-01, -2.68925726e-01, 8.54038373e-02,
          -8.79272372e-02, 1.32867754e-01, 1.89640507e-01,
          1.45167992e-01, 2.33531103e-01, -3.08612566e-02,
          -1.53905988e-01, 4.60750550e-01, 4.73373860e-01,
          -3.25256884e-01, -3.02485228e-01, -1.89763606e-01,
          -2.04252936e-02, -6.12633526e-01, 7.01207399e-01,
          7.49357224e-01, -8.37931037e-01, -5.64434707e-01,
          -5.35676420e-01, 5.01558721e-01, 5.98552465e-01,
          2.88781494e-01, -4.21922177e-01, -2.87601888e-01,
          3.76175642e-01, -8.12509298e-01, 7.23935544e-01,
          6.41653001e-01, -6.41653121e-01 ]
      - [ -5.81571281e-01, -4.29381490e-01, 3.56239587e-01,
          -5.01119159e-02, 3.27842414e-01, 2.33214885e-01,
          2.04491004e-01, 4.23785210e-01, 2.42209643e-01, 7.39013776e-02,
          2.30363667e-01, 6.59524560e-01, -6.93412006e-01,
          -5.66220820e-01, -4.09864515e-01, -2.10103653e-02,
          -7.04825044e-01, 1.18933368e+00, 1.20599937e+00,
          -1.69050777e+00, -7.04931319e-01, -6.88486099e-01,
          3.81229609e-01, 1.01218748e+00, -1.39002904e-01,
          -4.65131581e-01, -4.49895412e-01, 9.34403777e-01,
          -9.43521798e-01, 4.59013283e-01, 7.41970778e-01,
          -7.41971433e-01 ]
      - [ -3.41206074e-01, -3.29674065e-01, -4.44993936e-02,
          -2.49522328e-01, 8.56536329e-02, 2.72762388e-01,
          -3.27913538e-02, 1.94239199e-01, -1.39748365e-01,
          -8.42451528e-02, 3.46179754e-01, 4.78665620e-01,
          -1.91554278e-01, -3.28441650e-01, 1.08893685e-01,
          2.55288333e-01, -9.64901924e-01, 5.19863904e-01,
          6.00851893e-01, -1.55813932e-01, -5.86854994e-01,
          -4.69598472e-01, 3.77782673e-01, 6.78670824e-01,
          5.33024490e-01, -5.58113158e-01, -3.12464148e-01,
          -1.32573873e-01, -7.43989408e-01, 1.18902743e+00,
          5.01905560e-01, -5.01905859e-01 ]
      - [ -6.33374333e-01, -4.34872955e-01, 6.66403413e-01,
          -5.37820570e-02, 1.48579851e-01, 4.10831332e-01,
          2.66581774e-01, -4.60610129e-02, -2.47953162e-01,
          -1.57077163e-01, 7.70740151e-01, 5.45112848e-01,
          -5.33367813e-01, -1.92291856e-01, -6.30555511e-01,
          1.21086285e-01, -4.55625832e-01, 7.79932022e-01,
          9.10822749e-01, -1.23512912e+00, -1.26611543e+00,
          -3.73410612e-01, 1.07316983e+00, 5.66356122e-01,
          6.69283569e-01, -4.77645308e-01, -5.08836210e-01,
          8.33142042e-01, -1.13069010e+00, 8.06383789e-01,
          1.29107594e+00, -1.29107618e+00 ]
      - [ -5.57221055e-01, 5.65518588e-02, 6.27016783e-01,
          3.14679563e-01, -4.85425502e-01, 3.67242366e-01,
          -1.25169262e-01, -1.39224187e-01, -3.53644341e-01,
          -3.02604616e-01, 2.60494709e-01, 2.64783472e-01,
          -5.27522862e-01, 3.17021906e-02, 2.24170431e-01,
          3.44170302e-01, 4.41027164e-01, -3.82576704e-01,
          -1.30970910e-01, 7.25200474e-02, -1.92381370e+00,
          1.52891874e-01, 9.86512721e-01, 7.84409165e-01, 4.14686412e-01,
          -6.40617132e-01, -6.18852377e-01, 6.77302897e-01,
          -1.15206969e+00, 1.09361899e+00, 1.99963182e-01,
          -1.99963391e-01 ]
      - [ -3.32333386e-01, -2.95190275e-01, 4.71620150e-02,
          3.46995257e-02, 2.81017214e-01, 3.87803763e-01, 1.29267916e-01,
          -2.05264725e-02, 4.49627526e-02, 6.62223175e-02,
          3.77051771e-01, 2.09663272e-01, -3.36487591e-01,
          -3.62634391e-01, -2.72708893e-01, 4.20304090e-02,
          -5.45662165e-01, 7.77562499e-01, 6.97900176e-01,
          -9.29800510e-01, -3.42840999e-01, -2.03798607e-01,
          2.80772835e-01, 2.65866667e-01, 4.74552661e-01,
          -1.06297836e-01, 4.12973277e-02, 1.90602943e-01,
          -5.87936938e-01, 3.56036633e-01, 9.60345745e-01,
          -9.60346222e-01 ]
      - [ -1.36699605e+00, -7.48586416e-01, 1.29798067e+00,
          6.60814464e-01, 5.40283918e-01, 9.00784314e-01,
          -5.56118190e-01, -7.57927775e-01, 1.04020214e+00,
          -4.41715896e-01, 1.46427125e-01, 2.24538207e-01,
          -1.34053540e+00, -7.45339990e-01, 4.87500966e-01,
          6.58687830e-01, -1.56787291e-01, 1.27022251e-01,
          9.69451308e-01, -9.39686537e-01, -1.12704539e+00,
          -1.03485787e+00, 1.37579060e+00, 7.86112726e-01,
          3.38903278e-01, -1.67755508e+00, -6.74514115e-01,
          6.44748926e-01, -1.48738921e+00, 1.51715398e+00,
          4.93773520e-02, -4.93766181e-02 ]
      - [ -1.17787111e+00, 3.20920683e-02, 1.26863182e+00,
          -3.09832186e-01, 2.06585869e-01, 3.13983530e-01,
          -5.86055398e-01, 3.88562642e-02, 2.63901472e-01,
          -9.06109452e-01, 1.83077350e-01, 1.10522962e+00,
          -6.23578787e-01, 7.89628029e-02, 5.37744343e-01,
          -4.25618500e-01, -1.86979294e-01, -2.66299266e-02,
          6.46098554e-01, -4.32490289e-01, -1.33096278e+00,
          -4.81070995e-01, 1.40339816e+00, 4.08635587e-01,
          -1.10642874e+00, -2.42557597e+00, -6.25209510e-01,
          4.11600441e-01, -1.18682408e+00, 1.40043318e+00,
          -9.95104432e-01, 9.95104074e-01 ]
      - [ -6.26743913e-01, 3.83069925e-03, 6.71329677e-01,
          3.28568637e-01, -4.68598939e-02, -6.88836491e-03,
          -2.94723478e-03, -5.49190156e-02, 1.10746846e-01,
          -7.46473432e-01, 1.80441082e-01, 2.23048106e-01,
          -6.73019052e-01, -4.67926171e-03, 2.96008468e-01,
          3.48556519e-01, 3.76985073e-01, -1.11614622e-01,
          -2.32237518e-01, -3.31333578e-02, -1.23587608e+00,
          -7.54210293e-01, 1.14483202e+00, 8.45254242e-01,
          -1.04634665e-01, -1.09387112e+00, -6.76661372e-01,
          9.42031920e-01, -1.31342506e+00, 1.04805422e+00,
          -5.75868070e-01, 5.75867712e-01 ]
      - [ -2.34608352e-01, 3.40461247e-02, 4.02248621e-01,
          -3.24567974e-01, -9.04612690e-02, 5.36675870e-01,
          -1.85765013e-01, -1.33256674e-01, -1.29815601e-02,
          -3.67597461e-01, 5.54028153e-01, 2.52230436e-01,
          -5.54034114e-01, -7.67919794e-02, 2.39531815e-01,
          -3.86966318e-02, -1.22881547e-01, 1.27192989e-01,
          4.25679564e-01, -4.29990947e-01, -8.92085254e-01,
          1.26332566e-01, 1.01004350e+00, -2.44290888e-01,
          8.17399085e-01, -1.43196464e+00, 2.45652437e-01,
          -2.41341114e-01, -1.01140523e+00, 1.00709379e+00,
          5.37341535e-01, -5.37341297e-01 ]
      - [ 4.84212637e+00, 3.32961857e-01, -5.18733215e+00,
          9.57049966e-01, -4.35173124e-01, 6.00559771e-01,
          1.74826443e-01, 7.02973921e-03, -7.83861756e-01,
          3.81870389e-01, 1.80301082e+00, 6.42661750e-01, 6.68922305e-01,
          -1.41606796e+00, -8.48869145e-01, -1.73971522e+00,
          9.44805741e-01, 3.47243637e-01, 2.04368210e+00,
          -3.33573151e+00, 4.29201317e+00, -1.00677520e-01,
          -4.05836391e+00, -1.32971987e-01, 5.50598240e+00,
          2.18267012e+00, 5.34047651e+00, -4.04842615e+00,
          -1.14913726e+00, -1.42911986e-01, 2.96026874e+00,
          -2.96027040e+00 ]
      - [ -2.93304950e-01, 6.26305163e-01, 2.62230992e-01,
          1.12367548e-01, -1.47526577e-01, 6.39431775e-01,
          -8.71031523e-01, -1.88445017e-01, -9.79979783e-02,
          -4.43078458e-01, -4.32880878e-01, 6.70145929e-01,
          -5.40867150e-01, -1.25747129e-01, 5.82735598e-01,
          2.47662619e-01, 7.07598686e-01, -5.67571223e-01,
          -3.03811520e-01, 1.63783967e-01, -1.07969677e+00,
          6.96911514e-01, -4.58945841e-01, 8.41731131e-01,
          1.60908654e-01, -1.74260962e+00, 8.24905276e-01,
          -6.84877813e-01, -1.20769083e+00, 1.06766331e+00,
          -1.10755897e+00, 1.10755908e+00 ]
      - [ 3.21223378e+00, 3.60722136e+00, -4.01017666e+00,
          4.31984842e-01, -7.53013968e-01, -1.28893837e-01,
          -2.10601449e-01, 6.09796047e-01, -5.94433546e-01,
          -1.05052936e+00, 6.06119454e-01, 5.76945662e-01,
          1.13165832e+00, -2.72612786e+00, 4.39600885e-01,
          -1.14178360e+00, 3.24126339e+00, -4.82712865e-01,
          -4.61897582e-01, -2.29665399e+00, 2.99644494e+00,
          -2.98330694e-01, -3.17505717e+00, 4.76944059e-01,
          2.54767656e+00, 3.02513421e-01, 5.93754864e+00,
          -3.17899680e+00, -3.23943210e+00, 4.80882406e-01,
          -7.83904314e-01, 7.83904314e-01 ]
      - [ 9.04030263e-01, -2.99537301e-01, 1.73196852e+00,
          -2.03265846e-01, -2.64566451e-01, 2.86402845e+00,
          -2.47274756e+00, 3.85470480e-01, -1.55107841e-01,
          2.32177687e+00, -2.55606651e+00, 2.65538871e-01,
          2.00549915e-01, -3.03423333e+00, 4.44048166e-01,
          -1.31887615e-01, 2.13319564e+00, 5.12185693e-01,
          -1.23857930e-01, -2.52152324e+00, 6.84905946e-01,
          1.85203421e+00, -2.85279679e+00, 3.15856457e-01,
          1.08010519e+00, -1.53685987e-01, 3.20395517e+00,
          -5.58574080e-01, -6.67014420e-01, -1.97836757e+00,
          1.56991303e-01, -1.56995609e-01 ]
      - [ 6.07850075e-01, 8.54555607e-01, 3.79962623e-02,
          -3.26209575e-01, -2.04027310e-01, -3.10227722e-01,
          -7.32958555e-01, 4.19534475e-01, -3.30261320e-01,
          -1.44286722e-01, -3.84599507e-01, 4.90214735e-01,
          3.10993046e-01, 3.19636799e-02, 2.11320400e-01,
          -5.31857550e-01, 1.17419219e+00, -8.27679217e-01,
          -3.68932784e-01, 2.24195309e-02, 3.84554446e-01,
          4.32004839e-01, -8.68241370e-01, 5.16820662e-02,
          -6.18834615e-01, -8.92461836e-01, 9.48150456e-01,
          -6.01637304e-01, -1.31591275e-01, -2.14921981e-01,
          -1.57207251e+00, 1.57207203e+00 ]
      - [ -6.25478253e-02, 8.56980264e-01, -2.12146306e+00,
          -1.78115928e+00, -1.04606807e-01, 2.02049923e+00,
          -1.26613164e+00, 1.24934971e+00, 3.76314074e-01,
          2.12064171e+00, -1.53714001e+00, 1.26597631e+00,
          4.43614274e-01, -2.18955374e+00, 1.70607519e+00,
          -9.76848722e-01, -3.10819006e+00, 1.89911079e+00,
          2.22579193e+00, -1.01671338e+00, 6.52773976e-01,
          2.80856657e+00, -3.21865940e+00, -2.42681026e-01,
          -5.56036472e-01, -4.83034372e-01, 2.71032500e+00,
          -3.91940355e+00, 7.51016855e-01, 4.58062381e-01,
          1.33786988e+00, -1.33787000e+00 ]
      - [ 9.80993629e-01, -6.16000056e-01, -1.68135262e+00,
          3.48938406e-01, -6.83332086e-01, 9.85321820e-01,
          -4.18772161e-01, -5.99087715e-01, -7.75116384e-01,
          1.36216903e+00, 3.79912965e-02, -6.02912307e-01,
          2.64854968e-01, 9.18881297e-02, 1.18935227e+00, 1.15063809e-01,
          -9.67420757e-01, -7.15870082e-01, 2.21317708e-02,
          1.66115916e+00, -2.12599292e-01, 1.82337892e+00,
          -8.72781336e-01, -7.37997293e-01, 2.11937046e+00,
          1.55719030e+00, 6.66982949e-01, -2.35027385e+00,
          9.43795741e-01, 7.39495099e-01, 1.96670997e+00,
          -1.96671152e+00 ]
      - [ -1.80030838e-01, 1.57354191e-01, -7.64647067e-01,
          -6.96340442e-01, 5.89040853e-02, 1.10438263e+00,
          4.50768396e-02, 2.39211440e-01, 3.70570719e-02, 1.05930567e+00,
          9.01536793e-02, 1.72633201e-01, 1.27902180e-02,
          -1.14780021e+00, 1.65926386e-03, -1.89709887e-01,
          -1.48366416e+00, 1.44757509e+00, 1.35914958e+00,
          -1.32306063e+00, -7.12792426e-02, 1.17324221e+00,
          -6.27757192e-01, -4.74205136e-01, 8.24795723e-01,
          4.20832485e-01, 1.14061022e+00, -1.17669892e+00,
          -3.86472344e-02, 7.47361928e-02, 2.29891896e+00,
          -2.29891896e+00 ]
      - [ -4.48173463e-01, 2.86527961e-01, -1.33160090e+00,
          -1.23987412e+00, -6.24596700e-02, 1.03322411e+00,
          -7.75694549e-01, 6.88268542e-02, -9.56196189e-02,
          1.06948757e+00, -1.57168642e-01, 1.90058932e-01,
          -2.59156853e-01, 2.33423874e-01, 2.16896009e+00,
          -6.80761456e-01, -2.73312020e+00, 2.63896704e-01,
          1.00675845e+00, 1.46246552e+00, -8.65408957e-01,
          2.62266350e+00, -9.55041945e-02, -1.66175008e+00,
          -2.52879381e-01, -1.20523787e+00, 8.09118986e-01,
          -3.27834249e+00, 9.48135078e-01, 1.52108884e+00,
          1.16984856e+00, -1.16984999e+00 ]
      - [ -2.47466743e-01, 8.69279206e-02, -1.30835664e+00,
          -6.78100586e-01, -4.76266205e-01, 9.32948291e-02,
          -3.58126521e-01, 9.86775875e-01, -3.44166666e-01,
          4.27188799e-02, -1.43199712e-01, 1.05611920e+00,
          -2.10671321e-01, -1.17081501e-01, 1.14355218e+00,
          4.74046886e-01, -2.14699578e+00, 2.45677963e-01,
          6.11471534e-01, 1.28984642e+00, -1.27857089e+00,
          1.05860002e-01, -6.66130781e-01, 1.83884156e+00,
          1.76675349e-01, -1.20417953e+00, -5.43510377e-01,
          -1.35780787e+00, -6.29200459e-01, 2.53051853e+00,
          -3.65312636e-01, 3.65313619e-01 ]
      - [ 1.06649363e+00, -4.22572158e-02, -1.05069721e+00,
          4.09742743e-01, -3.54816377e-01, 1.26767647e+00,
          5.90959564e-02, -1.69910938e-01, -3.76746774e-01,
          1.18284118e+00, -7.56941438e-01, -1.44171670e-01,
          2.43881062e-01, -2.91791350e-01, -3.80675912e-01,
          -6.61722422e-01, 3.83281857e-01, 8.02045286e-01,
          -9.50188115e-02, -1.09030890e+00, 5.78811824e-01,
          2.11646891e+00, -2.12921834e+00, -5.66062152e-01,
          9.15506184e-01, 1.89556110e+00, 1.93709671e+00,
          -7.51769245e-01, 7.58184195e-01, -1.94351161e+00,
          1.75267243e+00, -1.75267327e+00 ]
      - [ -1.42841309e-01, -2.58764714e-01, -8.46246719e-01,
          -4.70480949e-01, 7.57957399e-01, 1.27767637e-01,
          3.11818570e-02, 8.95262659e-01, 7.96188474e-01, 9.33311656e-02,
          5.05990498e-02, 9.02809381e-01, -5.08303106e-01,
          -8.62909794e-01, 7.16214627e-02, -6.37172520e-01,
          -1.71833372e+00, 1.81216967e+00, 1.84292805e+00,
          -1.93676412e+00, 9.03001368e-01, -9.00575757e-01,
          -6.92844272e-01, 6.90418780e-01, -6.01647139e-01,
          -8.54271054e-01, 4.84119058e-01, -3.90283078e-01,
          -4.81693387e-01, 3.87857378e-01, 3.02879751e-01,
          -3.02879214e-01 ]
      - [ -2.63295174e-01, 4.43769246e-02, -7.75354743e-01,
          -6.69991732e-01, 9.77362335e-01, -5.82239509e-01,
          -1.88488460e+00, 9.28746521e-01, -5.59635341e-01,
          9.79522049e-01, 8.99118781e-02, -2.56404907e-01,
          2.62523025e-01, 3.48460585e-01, 1.58954680e+00,
          -2.28643939e-01, -1.66426432e+00, -5.61015248e-01,
          2.53393829e-01, 1.97188652e+00, 4.16954994e-01, 7.90119886e-01,
          -9.80780959e-01, -2.26293862e-01, -9.84266400e-01,
          -1.31283152e+00, 1.76204547e-01, -2.40148473e+00,
          1.03087044e+00, 1.19440985e+00, -1.39769030e+00,
          1.39769006e+00 ]
      - [ -3.49839598e-01, -2.44540960e-01, -4.68300551e-01,
          -4.12914962e-01, 2.96152383e-01, 3.22477072e-01, 0.,
          -1.48040816e-01, 2.63246566e-01, 3.22477072e-01,
          8.55551362e-02, -1.28297314e-01, 2.17178419e-01,
          8.55551362e-02, 3.88288677e-01, -2.28996202e-01,
          -1.47559571e+00, 4.70588624e-01, 5.42981505e-01,
          4.62026000e-01, 4.26737875e-01, 4.85968292e-01, 5.54321986e-03,
          -9.18249309e-01, -1.70803592e-01, 1.26740500e-01,
          2.42488384e-02, -1.02925634e+00, 8.88457179e-01,
          1.16550364e-01, 7.30509281e-01, -7.30509162e-01 ]
      - [ 1.44020412e-02, 4.11604762e-01, -1.30977893e+00,
          -7.43834376e-01, 2.67069250e-01, 2.20344916e-01, 0.,
          1.64003849e+00, 5.26679397e-01, 1.44019380e-01, 7.13060200e-02,
          1.74699736e+00, -6.41894817e-01, -1.60401022e+00,
          1.58046052e-01, -9.00989115e-01, -1.62760627e+00,
          2.12745285e+00, 2.48900223e+00, -2.98884797e+00,
          1.66256607e-01, -8.28041434e-01, -1.08042681e+00,
          1.74221265e+00, -5.94936073e-01, -1.24170971e+00,
          9.13420558e-01, -4.13574904e-01, -1.57520568e+00,
          1.07536042e+00, 4.35670257e-01, -4.35670614e-01 ]
      - [ 1.11660875e-01, 7.37498403e-01, -4.65912372e-01,
          -3.19866031e-01, 4.25329685e-01, -4.65999961e-01,
          -2.68864155e-01, 1.31843722e+00, 1.34799790e+00,
          1.30519485e+00, -1.48124492e+00, 6.69628799e-01,
          -9.79453623e-01, -1.30088258e+00, 2.61273563e-01,
          -8.94797802e-01, 6.33807704e-02, 1.00890291e+00,
          1.84157705e+00, -2.91386104e+00, 9.05534446e-01,
          2.75810659e-01, -1.95474827e+00, 7.73402154e-01,
          -2.73038173e+00, -2.62988865e-01, 8.08489084e-01,
          2.63794810e-01, 3.72856498e-01, -1.44514084e+00,
          -9.10914123e-01, 9.10912693e-01 ]
      - [ 5.29855043e-02, 1.13351151e-01, -7.23906517e-01,
          -8.63067448e-01, -2.24003643e-01, 5.47195673e-01,
          -7.31449604e-01, 6.92410469e-01, -3.86956990e-01,
          3.91872108e-01, -1.48391232e-01, 1.08829319e+00,
          -9.98968333e-02, -1.42923450e+00, 1.27823412e+00,
          4.42564636e-01, -1.42063701e+00, 2.84152806e-01,
          9.44817126e-01, 1.91667393e-01, -6.57871723e-01,
          -3.76815468e-01, -3.25513363e-01, 1.36020088e+00,
          8.94354522e-01, -1.30254173e+00, 4.89528775e-01,
          -1.62601292e+00, -1.52421629e+00, 2.66070080e+00,
          5.92269599e-02, -5.92265390e-02 ]
      - [ 1.39786923e+00, 4.09730005e+00, 9.21806246e-02,
          -1.00477266e+00, 1.63229510e-01, -4.64888304e-01,
          -9.33784187e-01, 4.60097820e-01, -1.60728619e-01,
          3.18179202e+00, -3.05858827e+00, 8.94216716e-01,
          -8.10526371e-01, -3.82953495e-01, -1.35649920e+00,
          -2.11394620e+00, 4.58257818e+00, -7.75345981e-01,
          8.56691599e-01, -4.66392851e+00, 5.89843452e-01,
          6.43125153e+00, -5.25669146e+00, -1.76440287e+00,
          -4.23955441e+00, 4.32710350e-01, 5.19351244e+00,
          -1.38627851e+00, 1.82758224e+00, -5.63481855e+00,
          -1.27547014e+00, 1.27547002e+00 ]
      - [ 6.48046983e-03, 9.15174246e-01, 2.74552286e-01, 5.49104571e-01,
          -5.31164646e-01, 2.37093726e-03, -6.55558825e-01,
          5.06190434e-02, -4.17360634e-01, -1.49368364e-02,
          -6.20943367e-01, -2.81704515e-01, -2.68071800e-01,
          1.22023240e-01, 6.10116184e-01, 2.59299368e-01, 1.74531150e+00,
          -1.13373351e+00, -1.33494556e+00, 7.23367095e-01,
          -1.21011662e+00, 1.02463186e+00, -3.91833663e-01,
          5.77318430e-01, -3.52792472e-01, -3.89462918e-01,
          3.92860800e-01, 2.18717232e-01, -5.78346074e-01,
          -3.32323387e-02, -1.28906798e+00, 1.28906751e+00 ]
      - [ -2.33227819e-01, -1.55187726e-01, -6.66464448e-01,
          1.09127261e-01, 7.66319990e-01, 8.94039989e-01, 3.64914276e-02,
          3.69376838e-02, 4.18511093e-01, 8.09802294e-01,
          -5.43405041e-02, 1.00599349e-01, -6.14057600e-01,
          -1.10396492e+00, -1.73433438e-01, -1.71152756e-01,
          -9.45752800e-01, 1.73378921e+00, 1.27457225e+00,
          -2.06260896e+00, 3.37545663e-01, 4.44689423e-01,
          -8.57746840e-01, 7.55114108e-02, 4.35319155e-01,
          3.41363549e-01, 1.27194476e+00, -4.83908027e-01,
          -4.89709318e-01, -2.98327237e-01, 1.68599331e+00,
          -1.68599427e+00 ]
      - [ -3.16493452e-01, 6.54299915e-01, 4.43706423e-01,
          6.59471571e-01, 6.59264326e-01, 1.13929950e-01,
          -1.23074222e+00, -6.52663350e-01, 7.35311329e-01,
          3.00013162e-02, -8.61861169e-01, -4.18302894e-01,
          -7.30672479e-01, -4.29916233e-01, 9.91958022e-01,
          3.52708727e-01, 1.44098425e+00, -1.11021137e+00,
          -5.14851272e-01, 1.84077829e-01, 3.47409457e-01,
          3.68314981e-01, -6.56939209e-01, -5.87859154e-02,
          -7.11716056e-01, -1.27194190e+00, 1.11100042e+00,
          -7.80227602e-01, -3.95276099e-01, 6.45026639e-02,
          -1.94867206e+00, 1.94867110e+00 ]
      - [ -3.63320746e-02, 6.63158655e-01, 2.79336512e-01,
          -1.00062490e-01, 1.88414589e-01, -2.52633005e-01,
          -6.90964639e-01, 7.80372918e-02, 6.82956427e-02,
          -1.78916231e-01, -4.72325653e-01, 1.83869779e-01,
          -6.06495794e-03, 1.05362713e-01, 5.08044779e-01,
          -3.37221026e-01, 8.06100547e-01, -6.77145720e-01,
          -3.99076581e-01, 2.70121425e-01, 2.14313015e-01,
          3.36972207e-01, -3.75909060e-01, -1.75376311e-01,
          -1.09851182e+00, -9.76008356e-01, 5.62608123e-01,
          -4.33653206e-01, -1.13228280e-02, -1.17632061e-01,
          -1.59483957e+00, 1.59483933e+00 ]
      - [ -7.44088292e-02, 5.77080965e-01, 1.86015755e-01,
          3.72031510e-01, 2.15482011e-01, -3.62107635e-01,
